<?xml version="1.0"?>
<opencv_storage>
<my_detector_16h00_20_8 type_id="opencv-object-detector-hog">
  <winSize>
    40 56</winSize>
  <blockSize>
    24 24</blockSize>
  <blockStride>
    8 8</blockStride>
  <cellSize>
    8 8</cellSize>
  <nbins>9</nbins>
  <derivAperture>1</derivAperture>
  <winSigma>6.</winSigma>
  <histogramNormType>0</histogramNormType>
  <L2HysThreshold>2.0000000000000001e-01</L2HysThreshold>
  <gammaCorrection>0</gammaCorrection>
  <nlevels>64</nlevels>
  <signedGradient>0</signedGradient>
  <SVMDetector>
    2.10200667e-01 2.31886074e-01 9.37692374e-02 -8.10625777e-03
    -1.36735931e-01 -1.00333214e-01 -6.67519942e-02 -5.67785883e-03
    7.36781880e-02 2.45602608e-01 1.63351879e-01 -2.03351211e-02
    -2.36326829e-02 -1.02223024e-01 -8.44530016e-02 -8.92807245e-02
    4.52054963e-02 1.32813394e-01 6.12736940e-02 7.05955848e-02
    -1.01382034e-02 2.19566729e-02 5.22552943e-03 6.83241859e-02
    8.79269559e-03 -1.25140212e-02 -3.94225828e-02 1.49035007e-02
    6.74160272e-02 2.37245243e-02 6.00253697e-04 -1.28758878e-01
    -9.34444368e-02 -4.98998351e-02 -1.83569212e-02 -1.81820597e-02
    -4.48904894e-02 -1.73983641e-03 -4.20451462e-02 -5.45694679e-02
    -6.63449466e-02 1.98244695e-02 -1.90928876e-02 2.24346239e-02
    -3.55040953e-02 -2.91458610e-02 -2.72723511e-02 -1.34102553e-02
    4.38628495e-02 3.65693644e-02 1.38821930e-01 6.32670224e-02
    3.25332731e-02 -4.61264849e-02 -2.28291117e-02 5.80212101e-03
    -2.68775746e-02 -1.52728176e-02 -5.58358394e-02 -2.16807686e-02
    -2.99994070e-02 -2.48481315e-02 -3.25464681e-02 -4.10672389e-02
    -4.34933677e-02 -6.12898543e-02 -4.14515883e-02 -2.52897814e-02
    1.87271163e-02 -1.87741350e-02 3.74836451e-03 -2.54615285e-02
    -9.79782268e-03 -3.90770137e-02 -2.62377653e-02 5.12210764e-02
    2.38575600e-02 1.32323122e-02 -2.79869325e-02 1.04544293e-02
    -8.25212803e-03 6.41277358e-02 4.79482114e-02 -1.64012052e-02
    1.23229306e-02 -9.09736753e-03 -2.47736536e-02 -4.39737663e-02
    -9.06466041e-03 3.01539991e-03 4.51291539e-02 6.51612878e-02
    -1.41173964e-02 3.57419103e-02 4.49911272e-03 8.37749317e-02
    1.47349648e-02 -2.66724732e-02 -5.85661232e-02 1.54774834e-03
    1.28574027e-02 -6.48337007e-02 9.36031993e-03 9.12797358e-03
    3.51171531e-02 -1.15138367e-02 -2.59942804e-02 -4.72707823e-02
    -4.90283892e-02 -7.30277179e-03 -2.03901960e-04 6.21924587e-02
    6.44138977e-02 6.69221058e-02 -2.26806030e-02 -2.33245734e-02
    -6.77090213e-02 3.55540193e-03 2.60719322e-02 4.28046472e-02
    3.98570597e-02 6.31671175e-02 1.41740575e-01 6.16072640e-02
    4.59589064e-02 -1.69036910e-02 5.15552470e-03 2.36343537e-02
    -1.81730725e-02 5.87628148e-02 8.14824924e-02 9.64787453e-02
    4.09286879e-02 4.26748674e-03 -8.48541558e-02 -1.58816185e-02
    -1.80767067e-02 -5.96566172e-03 3.04758660e-02 2.24365648e-02
    7.98264705e-03 -3.92577052e-02 -8.99108406e-03 -1.65530257e-02
    3.76034975e-02 3.03277131e-02 3.03972401e-02 3.30739059e-02
    -1.13277286e-02 2.28844583e-02 6.42868271e-03 4.41982299e-02
    1.29776401e-02 1.96793694e-02 -1.23915765e-02 -5.59914112e-02
    5.99817187e-03 2.43743919e-02 4.14309911e-02 2.47119237e-02
    2.29698401e-02 -3.10495347e-02 2.82033440e-02 3.80672030e-02
    -3.39632817e-02 -3.58849252e-03 -1.62447169e-02 3.00777964e-02
    7.23079499e-03 -6.88248500e-03 -3.28792408e-02 4.79907095e-02
    2.75500026e-02 -8.04660469e-02 -1.78589986e-03 -4.95713204e-02
    8.38378165e-03 -1.27402553e-02 1.36558255e-02 1.77716259e-02
    -1.06688840e-02 -3.70744825e-03 -3.71663123e-02 -6.11001514e-02
    -8.25703219e-02 -6.40061200e-02 -7.62672201e-02 5.16150566e-03
    1.22496197e-02 5.56124598e-02 8.21313933e-02 3.12765017e-02
    1.09444745e-01 9.64744762e-02 1.28710851e-01 5.04249111e-02
    4.07759845e-02 -1.53723797e-02 5.62112546e-03 4.27038521e-02
    1.67784875e-03 -2.42530345e-03 2.93547474e-02 1.76113453e-02
    1.12220664e-02 -2.42468365e-03 -3.25365365e-02 1.21066440e-02
    3.01668495e-02 1.96602028e-02 1.39456242e-02 4.81613493e-03
    5.29051246e-03 -2.99973395e-02 -2.20352691e-02 -4.04642485e-02
    5.64858206e-02 6.30798489e-02 2.52337623e-02 7.75748640e-02
    3.60054299e-02 2.50855107e-02 -6.92758989e-03 2.34398320e-02
    4.66807233e-03 5.35705425e-02 6.15654401e-02 2.84504406e-02
    5.82702644e-02 1.62489749e-02 6.08348027e-02 3.33123282e-02
    4.22455147e-02 -4.29029763e-03 4.36146464e-03 4.26936150e-03
    -4.67449380e-03 2.55948585e-02 3.24653313e-02 3.84949930e-02
    7.84775335e-03 -9.42143728e-04 -1.87473353e-02 1.42738754e-02
    4.22725873e-03 -7.17878267e-02 -3.58048715e-02 -6.06170408e-02
    -1.56771224e-02 -1.02588786e-02 2.89994143e-02 1.68472603e-02
    2.14480609e-02 -6.45669736e-03 -7.36300424e-02 -1.12589695e-01
    -1.62468478e-01 -7.61790127e-02 -5.83511107e-02 9.94222835e-02
    1.13943286e-01 -2.20617745e-02 -2.02734545e-02 -5.86092770e-02
    -1.02559626e-01 -1.38969555e-01 -1.04853459e-01 -9.42340270e-02
    6.11780733e-02 7.65372440e-02 5.44934720e-02 7.66671598e-02
    1.08669735e-02 3.43068391e-02 4.10312675e-02 4.05239165e-02
    2.25170795e-03 9.72277205e-03 -2.00662650e-02 1.04222223e-02
    5.67383096e-02 2.06632838e-02 -5.99605916e-03 -5.19004278e-03
    1.15540223e-02 -2.54439190e-02 1.98629848e-03 2.82509485e-03
    -9.27548297e-03 2.16785688e-02 -5.58882300e-03 1.78041831e-02
    -1.72860492e-02 -1.03002433e-02 -1.34709431e-02 2.85837594e-02
    -6.30935607e-03 4.66613844e-02 4.87464145e-02 1.82998478e-02
    5.58782369e-02 4.07259353e-02 2.67746542e-02 -4.34713997e-03
    6.52302429e-03 -7.84244388e-03 5.39510325e-02 9.45542008e-02
    9.00715813e-02 7.97104761e-02 2.73047313e-02 8.61267671e-02
    3.76347043e-02 3.17180641e-02 1.18211508e-02 1.07799051e-02
    4.53290008e-02 1.73487104e-02 5.41228242e-02 5.62283732e-02
    5.42273037e-02 5.73051674e-03 9.44628567e-03 -7.45184347e-03
    -1.37797939e-02 -8.12277477e-03 -4.58425209e-02 -7.17554837e-02
    -9.27843377e-02 -4.97692674e-02 -5.64344190e-02 4.36041616e-02
    5.87072819e-02 2.00869013e-02 -2.48324778e-02 -9.81129184e-02
    -1.59803152e-01 -2.28134945e-01 -1.62111774e-01 -4.89214398e-02
    2.59919196e-01 2.20066458e-01 -1.93748251e-02 -3.82884108e-02
    -9.25712809e-02 -1.45435855e-01 -1.58741727e-01 -1.05992399e-01
    1.07919052e-01 3.47182333e-01 1.39841273e-01 2.37606987e-02
    7.13058561e-02 6.18638396e-02 5.24914227e-02 5.24177309e-03
    2.24751607e-02 -1.59653686e-02 -1.88907096e-03 -4.08601481e-03
    5.49866743e-02 5.28031141e-02 1.11861844e-02 -3.88797931e-03
    -4.49774824e-02 -6.83402643e-03 6.23354455e-03 8.57523456e-02
    8.17709565e-02 -7.95419812e-02 -1.03536539e-01 -1.39893085e-01
    -7.28190914e-02 -7.82148167e-02 -9.75706428e-03 1.38832361e-01
    1.89440414e-01 2.69256942e-02 3.54555734e-02 8.04715306e-02
    6.95564076e-02 6.17575273e-02 1.89951826e-02 6.99508423e-03
    -3.24561149e-02 -1.69349350e-02 -1.75616462e-02 3.62222902e-02
    8.70444775e-02 6.21851496e-02 1.21717058e-01 8.67769420e-02
    1.22055344e-01 3.72060835e-02 5.12676463e-02 3.74997929e-02
    -4.10345756e-02 -3.14118005e-02 -3.73528339e-02 3.44477817e-02
    6.36904687e-02 4.51784432e-02 1.69753227e-02 2.75711026e-02
    -1.78735275e-02 -1.90218911e-02 5.82743296e-03 -2.66220234e-03
    2.13590842e-02 -3.44389416e-02 -2.56614182e-02 -1.34240268e-02
    -1.53596094e-02 -3.31075750e-02 -2.51262430e-02 -8.87670834e-03
    -1.27204042e-02 9.05970018e-03 -1.77752804e-02 3.34390067e-02
    -1.45241115e-02 6.72020530e-03 -3.40092219e-02 7.89663754e-03
    1.79321077e-02 8.39828886e-03 4.92562987e-02 1.70688927e-02
    4.14521471e-02 -1.10070230e-02 4.46218718e-03 -1.19510200e-02
    -5.98712005e-02 -8.00091866e-03 -3.60758826e-02 -1.18320789e-02
    -6.04379438e-02 -1.54530630e-02 -5.34244552e-02 -4.73281294e-02
    -7.66727626e-02 -4.43324000e-02 -3.83012444e-02 -2.37083044e-02
    2.54383534e-02 9.08582937e-03 4.88368608e-02 -1.76189337e-02
    -1.44792609e-02 -3.60217132e-02 8.17493815e-03 9.72404960e-04
    3.75115573e-02 7.03097209e-02 1.28431506e-02 2.58512851e-02
    1.09796543e-02 4.13153619e-02 1.85987465e-02 -4.64821868e-02
    -1.88338775e-02 -1.41866980e-02 -1.81241184e-02 -1.46735823e-02
    6.11274084e-03 -4.40890789e-02 -1.87049583e-02 -4.91039306e-02
    -3.02902050e-02 -2.55645905e-02 -1.76268499e-02 -4.14510816e-03
    2.50127707e-02 7.80701786e-02 -1.58152059e-02 -1.82421897e-02
    -3.24858949e-02 -4.82297409e-03 -2.01861523e-02 -8.92397482e-03
    5.42765148e-02 3.21207233e-02 7.47459382e-02 -3.10667697e-02
    3.00731305e-02 -1.19005155e-03 -1.71412621e-02 -1.87590178e-02
    -1.22037437e-02 1.99577361e-02 1.03417598e-02 1.19287381e-02
    -2.34474726e-02 -1.57171302e-02 -2.86247376e-02 3.34237739e-02
    5.08006066e-02 2.64552329e-02 5.99246621e-02 1.86798023e-03
    2.82546505e-02 -2.59566717e-02 7.64216017e-03 -1.31729525e-02
    3.04001942e-02 5.37968352e-02 -8.68898258e-03 1.74994096e-02
    1.18111176e-02 8.50341190e-03 -1.82469059e-02 -5.38273714e-03
    -3.79405394e-02 -2.72518732e-02 -4.32603322e-02 -3.79891470e-02
    3.21756937e-02 6.64884001e-02 1.63271502e-02 -2.99107470e-02
    -8.06985889e-03 -2.60432456e-02 1.42965671e-02 4.24016081e-02
    3.55977640e-02 -2.34933961e-02 -6.54298216e-02 -1.90320127e-02
    1.48010748e-02 8.09341073e-02 3.50120217e-02 4.25103419e-02
    3.52959670e-02 6.00648765e-03 4.04993892e-02 -1.05294539e-02
    5.29450774e-02 1.97660401e-02 4.53571677e-02 -5.58935432e-03
    -5.76293888e-03 -2.97053903e-02 -2.52632257e-02 1.00387670e-02
    3.85889076e-02 2.93179788e-02 -3.37275043e-02 -1.60211064e-02
    -9.78267100e-03 3.21369059e-02 1.98783297e-02 1.33922976e-02
    -1.85515769e-02 -3.48215252e-02 2.89778113e-02 4.54239827e-03
    7.91956633e-02 3.82412858e-02 5.03849890e-03 -6.20574504e-03
    -2.74190470e-03 2.85661165e-02 8.28257762e-03 1.92098040e-02
    -5.70275728e-03 3.79956886e-02 2.99179126e-02 3.44273001e-02
    3.70122977e-02 -2.10563261e-02 -1.09898262e-02 -2.72377059e-02
    -1.12781990e-02 -2.00538263e-02 8.98047909e-03 -1.39670409e-02
    5.61120361e-02 7.35826269e-02 -1.34511096e-02 -8.16170685e-03
    -2.51646955e-02 -4.49067680e-03 -2.86902152e-02 -1.08336192e-02
    -3.63088287e-02 2.12058630e-02 5.90964407e-03 -1.27943195e-02
    -8.09649844e-03 5.72133576e-03 -4.07592021e-03 -4.59239222e-02
    -2.16797143e-02 -1.81537606e-02 6.27145544e-02 5.20500056e-02
    3.00872717e-02 3.92734744e-02 -2.43631490e-02 1.85658801e-02
    3.12458184e-02 6.76091760e-02 3.06200199e-02 2.47437344e-03
    2.71695256e-02 3.74204433e-03 -2.70450301e-02 -4.44161445e-02
    -1.18526518e-02 -3.06799896e-02 2.04081144e-02 -1.73942689e-02
    6.95664482e-03 8.34840909e-03 1.86861157e-02 1.92125477e-02
    -1.80908944e-02 2.94096824e-02 2.30391286e-02 6.97035156e-03
    -1.61753036e-02 3.27429473e-02 3.74982767e-02 1.71653461e-02
    -3.12993373e-03 -3.34821232e-02 1.07556731e-02 -1.70497727e-02
    4.94873896e-02 3.01902406e-02 4.11022268e-02 2.17930526e-02
    3.68779413e-02 6.36282116e-02 -1.39596881e-02 1.99191794e-02
    -2.63710748e-02 4.68802080e-02 4.53046188e-02 4.39505046e-03
    1.83967911e-02 2.47256160e-02 2.94385701e-02 1.70751363e-02
    1.30651658e-02 -1.40536856e-03 1.90515034e-02 8.63093138e-03
    2.53816769e-02 8.65203515e-03 -5.07121496e-02 -3.83400284e-02
    -4.72413339e-02 -2.80913077e-02 -3.81046906e-02 -5.97541127e-03
    -1.96291711e-02 6.86683506e-03 1.27302669e-02 5.79824811e-03
    2.52665859e-02 -4.36814083e-03 1.07845739e-02 -2.18029786e-02
    -1.73108391e-02 -3.71817462e-02 -1.77725460e-02 -1.79711748e-02
    -2.08602771e-02 1.10234199e-02 -5.48432115e-03 -1.06726568e-02
    -3.01510226e-02 -2.55668629e-02 -2.95712072e-02 2.73948032e-02
    1.83547137e-03 -8.07656255e-03 1.85036901e-02 -1.12252645e-02
    1.27943670e-02 -2.53453180e-02 -7.26843625e-03 -9.14065260e-03
    -8.23851384e-04 5.74012250e-02 2.42552087e-02 2.18885951e-02
    -6.57176226e-02 -1.39762601e-02 -2.06491649e-02 3.48480744e-03
    -3.63718569e-02 -3.31540592e-02 2.93156113e-02 1.52912876e-02
    5.15951551e-02 3.08473911e-02 3.91894355e-02 -1.76041089e-02
    -1.74469352e-02 -5.47384433e-02 1.98427197e-02 1.17022684e-02
    3.25182416e-02 3.62733267e-02 -2.08493490e-02 -2.91092284e-02
    -6.36554137e-02 -6.19452633e-03 3.41807827e-02 2.74906680e-02
    6.96214586e-02 7.09989965e-02 7.43334442e-02 -1.19802654e-02
    3.20128128e-02 5.34965955e-02 4.86174785e-02 1.97474030e-03
    -2.22854335e-02 1.27552915e-02 2.11838298e-02 8.08061734e-02
    3.98514718e-02 1.15763824e-02 -2.97083729e-03 9.45621077e-03
    -2.39090677e-02 -1.35017056e-02 3.83680942e-03 -1.33080222e-02
    3.55231250e-03 -2.08724011e-02 -2.53842007e-02 -3.02248057e-02
    -2.60452814e-02 -3.59169245e-02 -2.20945571e-02 -1.95725095e-02
    -2.05204785e-02 3.71019132e-02 4.93787182e-03 -1.43796229e-03
    -3.46913226e-02 -1.65739544e-02 -5.36153913e-02 -5.95511235e-02
    -7.36202896e-02 -8.88202339e-02 -3.68818492e-02 -1.32967848e-02
    -3.37138958e-02 -2.60592587e-02 -1.13109648e-02 -6.29628971e-02
    -3.22819874e-03 5.06768823e-02 5.23508526e-02 4.49752919e-02
    -3.65848504e-02 4.46079765e-03 -2.69876346e-02 -2.96418462e-02
    -5.42724393e-02 -6.38288110e-02 1.29297161e-02 4.65687476e-02
    1.03425272e-01 2.33090613e-02 6.46926016e-02 -5.94368787e-04
    -1.44993803e-02 -5.93666956e-02 -1.12722561e-01 -6.44936040e-02
    -3.32206339e-02 7.79170468e-02 4.47061099e-02 5.23477122e-02
    -3.28372084e-02 -5.80796488e-02 -1.00353062e-01 4.96570254e-03
    4.38203402e-02 3.62321883e-02 2.07194053e-02 9.38606821e-03
    1.13581913e-03 -3.48387193e-03 6.33005518e-03 -1.54608171e-02
    -4.61349711e-02 4.29184968e-03 5.82412370e-02 1.69754133e-01
    1.10762961e-01 1.42992571e-01 2.65932847e-02 7.54939811e-03
    -5.28975949e-02 -4.33879308e-02 -2.53697252e-03 1.45658916e-02
    6.48561269e-02 6.14195950e-02 6.03733100e-02 -3.97848189e-02
    -3.18880267e-02 -5.17014973e-02 -2.54189633e-02 -9.21082566e-04
    -1.43085113e-02 -1.15797427e-02 -2.54570581e-02 -2.54395953e-03
    -3.72159779e-02 -2.15211324e-02 -3.30055766e-02 -1.76716261e-02
    -2.32387986e-02 -2.91000921e-02 3.32117416e-02 3.16145681e-02
    3.88021208e-02 -3.49267572e-02 -6.28563948e-03 -2.09392924e-02
    -7.28546362e-03 -4.91311820e-03 2.70899339e-03 7.85661861e-02
    5.68629541e-02 -6.97700726e-03 -4.94208597e-02 -3.15361354e-03
    -1.68435108e-02 -8.19115043e-02 -3.89829390e-02 -3.20766307e-02
    -4.16227318e-02 -8.30460042e-02 -1.78887360e-02 -7.77831599e-02
    -3.46242115e-02 -8.25071260e-02 -5.68559058e-02 -2.75000595e-02
    7.91779347e-03 2.00633984e-02 -4.60503390e-03 3.23135257e-02
    -3.79710570e-02 -3.93103883e-02 -5.92484660e-02 9.13241133e-03
    1.82221513e-02 3.97579893e-02 5.53758331e-02 -6.82661310e-04
    9.35593620e-02 9.24131181e-03 5.16443290e-02 3.20950313e-03
    -9.03932098e-03 -4.62920889e-02 -5.60095273e-02 -5.65563664e-02
    -1.07360169e-01 -1.49003491e-02 1.65977143e-02 8.57484415e-02
    5.28978370e-02 -1.30611276e-02 -6.30344031e-03 -4.03023744e-03
    2.64184810e-02 -2.91524641e-02 8.54486153e-02 3.83193232e-02
    2.03683004e-02 -1.33696394e-02 -4.56919856e-02 -6.40078215e-03
    4.45836857e-02 1.09759144e-01 5.68080693e-02 1.19064555e-01
    3.59120630e-02 5.53687587e-02 -1.99822076e-02 -9.22606792e-03
    -2.70558689e-02 -2.75945179e-02 -7.24561804e-04 9.88703873e-03
    5.08664222e-03 -3.17292549e-02 -8.00606888e-03 -1.07542574e-02
    2.87965480e-02 1.60949137e-02 5.09097660e-03 2.93077808e-02
    -2.99901087e-02 -3.44488285e-02 -1.16180768e-02 5.23499697e-02
    1.74084250e-02 1.25359837e-02 2.17902418e-02 -4.65423241e-03
    3.23504470e-02 -3.52383684e-03 -9.02970973e-03 -2.43571866e-02
    6.55331183e-03 -7.46176112e-03 -3.05828638e-02 -4.64448519e-02
    -3.36921662e-02 2.89066099e-02 3.70700732e-02 5.46782799e-02
    -4.45390791e-02 -3.07073891e-02 -3.74902487e-02 2.72431578e-02
    4.41049486e-02 4.64281477e-02 -1.62278081e-03 -6.32387400e-02
    1.96588561e-02 4.95118797e-02 8.90417695e-02 2.71532889e-02
    -1.42693787e-03 2.02455875e-02 3.71452346e-02 7.86121935e-02
    1.56038534e-02 4.37504761e-02 1.39700482e-03 7.55937770e-02
    3.82326432e-02 -4.33348902e-02 -2.60984842e-02 -2.80093160e-02
    2.92335246e-02 -4.39152308e-03 5.70825487e-02 9.90758277e-03
    -1.61155500e-02 -4.85969335e-02 -6.04743585e-02 2.08539166e-03
    8.33467394e-02 1.40038624e-01 5.14439382e-02 1.27082825e-01
    3.82610634e-02 8.62423405e-02 -2.94350795e-02 -7.09834918e-02
    -1.86652970e-02 3.41569073e-02 6.24533072e-02 3.42275389e-02
    3.04962555e-03 -3.54722217e-02 6.63499460e-02 -9.55808721e-03
    2.17647254e-02 6.61338586e-03 -2.59651057e-02 -1.16411485e-02
    -4.60808761e-02 -7.13249110e-03 5.48152113e-03 4.44385298e-02
    1.79728456e-02 3.42313349e-02 1.83707755e-02 -1.36890961e-03
    3.87485251e-02 -1.13668023e-02 2.87083108e-02 -8.54840409e-03
    3.25680487e-02 1.90950297e-02 5.24201198e-04 -1.29674829e-03
    -1.65933592e-03 3.03991162e-03 8.75879917e-03 1.54040996e-02
    3.17508331e-03 1.48735438e-02 -7.70784030e-03 3.86961624e-02
    4.57479917e-02 4.95088398e-02 3.32157947e-02 -7.69905420e-03
    6.34377152e-02 1.11076413e-02 9.15881172e-02 6.06839024e-02
    5.07670175e-03 3.75913293e-03 1.03203841e-02 2.46960148e-02
    -4.65450361e-02 -2.17835233e-02 -3.44187580e-02 5.42582050e-02
    1.48458276e-02 -2.36719269e-02 9.40115377e-03 2.58621313e-02
    4.66325283e-02 -1.33955711e-03 4.95618470e-02 4.31955531e-02
    5.03837094e-02 4.92807303e-05 -3.68461646e-02 -2.25762531e-04
    5.21397293e-02 7.20628798e-02 -2.75827781e-03 1.76282041e-02
    -5.78338876e-02 4.24343124e-02 -1.82926022e-02 -6.57441914e-02
    -1.79074183e-02 2.76771206e-02 5.18943407e-02 -1.91953387e-02
    -1.94563642e-02 -2.91223135e-02 8.04059356e-02 1.92573313e-02
    -2.64044739e-02 -3.35825905e-02 -4.98820916e-02 -4.19158563e-02
    -2.86950283e-02 4.82185278e-03 2.32883636e-02 5.86855076e-02
    9.29725880e-04 9.50598624e-03 -2.06931699e-02 -3.75079364e-02
    -5.72894583e-04 -6.62228279e-03 1.82244256e-02 8.21697060e-03
    2.04502773e-02 6.14275225e-03 1.87425837e-02 4.33082096e-02
    4.97464277e-02 3.84305641e-02 -7.41815008e-03 5.16868606e-02
    6.61352202e-02 6.14233054e-02 2.35222583e-03 -2.33473759e-02
    7.34692113e-03 -4.75536799e-03 3.11149936e-02 4.64160293e-02
    4.68852893e-02 1.56081188e-02 1.67148001e-02 -2.00799778e-02
    -1.50159691e-02 -1.91654507e-02 2.36527976e-02 4.48714010e-02
    1.73191708e-02 2.13557128e-02 -8.79791100e-03 4.35874201e-02
    4.59543429e-02 -1.41836079e-02 -5.02023788e-04 1.90736223e-02
    3.28312814e-02 -2.99755167e-02 4.12885547e-02 6.34366870e-02
    5.46700768e-02 -1.50433369e-02 -5.18812425e-02 -2.20679641e-02
    -1.53700728e-02 7.57975429e-02 4.73166034e-02 7.07309023e-02
    3.72167677e-02 4.83378172e-02 -3.41233946e-02 -3.93347368e-02
    -7.60103902e-03 -4.63587651e-03 -2.44090403e-03 -4.26741838e-02
    -4.27298583e-02 -6.54749423e-02 7.51919346e-03 -2.92388536e-03
    -2.16980502e-02 -1.48492875e-02 -1.97935198e-02 -4.22804579e-02
    -3.65470834e-02 2.65733134e-02 4.95185629e-02 8.37639570e-02
    -4.26132558e-03 2.89411703e-03 -6.45730877e-03 -4.17367332e-02
    -3.76649573e-02 -5.23490235e-02 -4.99037020e-02 -4.58697267e-02
    1.78907868e-02 -6.92552887e-03 -7.24765379e-03 -6.79133111e-04
    -1.68667156e-02 -1.13701224e-02 -2.91819731e-03 9.19799600e-03
    2.60803867e-02 1.87734067e-02 -2.13307701e-02 -5.80043942e-02
    -4.11306880e-03 3.45855691e-02 1.71301246e-01 1.44957215e-01
    1.47163898e-01 4.26097587e-02 9.64888744e-03 -4.84242924e-02
    -5.41235097e-02 -2.40876134e-02 6.32144045e-03 7.71802962e-02
    8.58771950e-02 4.24701832e-02 -3.74932550e-02 -3.46056223e-02
    -5.56290038e-02 -4.64015231e-02 -2.35755239e-02 -1.82504207e-02
    3.35080586e-02 3.76103595e-02 6.25203252e-02 5.90472147e-02
    4.67880219e-02 -4.19756956e-02 -6.54558465e-02 -3.50817814e-02
    2.69103907e-02 9.83888581e-02 1.63203962e-02 1.19012684e-01
    3.42229046e-02 1.23893283e-02 -5.23036905e-02 -7.43118301e-02
    -3.75265558e-03 1.51428450e-02 1.12119690e-01 5.75016923e-02
    8.29917639e-02 -7.55987838e-02 -6.80527687e-02 -9.89241973e-02
    -2.36806739e-02 -2.35496573e-02 -4.92002368e-02 -5.74094579e-02
    -4.05885391e-02 -2.23552268e-02 -6.74698455e-03 2.17981320e-02
    -2.57317349e-02 3.58931199e-02 4.40000147e-02 -1.66173577e-02
    -1.88856609e-02 -7.76338503e-02 -1.49147827e-02 -5.23156449e-02
    1.44493748e-02 -7.52562191e-03 1.89038571e-02 1.04351647e-01
    4.73026335e-02 -4.12222184e-02 -1.06860705e-01 -6.87136278e-02
    -1.18706062e-01 -8.14606845e-02 -6.82223067e-02 -1.32835889e+00</SVMDetector></my_detector_16h00_20_8>
</opencv_storage>
