%YAML:1.0
---
my_detector_4h11: !!opencv-object-detector-hog
   winSize: [ 32, 32 ]
   blockSize: [ 16, 16 ]
   blockStride: [ 8, 8 ]
   cellSize: [ 8, 8 ]
   nbins: 9
   derivAperture: 1
   winSigma: 4.
   histogramNormType: 0
   L2HysThreshold: 2.0000000000000001e-01
   gammaCorrection: 1
   nlevels: 64
   signedGradient: 0
   SVMDetector: [ -1.74308475e-03, 5.05765842e-04, -1.34388611e-04,
       -7.18003546e-04, -8.35972241e-05, -5.52136451e-03, 3.62318545e-03,
       4.07428062e-03, 4.96720546e-04, 4.45091352e-03, -1.41609646e-03,
       1.21701357e-03, 6.83327997e-03, 2.29426776e-04, -6.56578224e-03,
       -9.17866346e-05, 4.36711445e-04, 1.23249646e-03, -5.61002363e-03,
       -4.46511805e-03, 4.99322545e-03, 3.37189005e-04, -1.47973548e-03,
       -1.03052123e-04, 3.09338653e-03, 1.71888724e-03, 2.31711636e-03,
       -2.61227856e-03, -4.19230945e-03, 3.45487799e-03, 2.50799840e-05,
       7.53741711e-03, -1.04214787e-03, -3.18859611e-03, 3.16430232e-03,
       2.33211555e-03, -1.73708494e-03, 1.69874344e-03, -7.02860474e-04,
       -4.90976684e-03, 2.60214065e-03, 2.92801065e-04, 2.96070427e-03,
       -7.86579680e-04, 3.60435015e-03, 2.44946312e-03, 4.94209351e-03,
       2.76555936e-03, -5.09138976e-04, 8.43550733e-05, 3.83429881e-03,
       1.12020609e-03, -2.10792525e-03, 1.28396892e-03, 8.16644356e-03,
       8.18439352e-04, 1.07914931e-03, 7.44201607e-05, 1.39124610e-03,
       -2.00939644e-03, -8.83386470e-04, -2.89812428e-03, 4.42593032e-03,
       3.06904293e-03, -2.67533422e-03, 1.35949242e-03, 5.18692704e-03,
       1.13128731e-03, -3.44316219e-03, -5.49913151e-03, 5.63895376e-03,
       1.33437826e-03, -1.51168520e-03, -3.37754958e-03, 2.62435526e-03,
       6.02376997e-04, -2.35322863e-03, 2.88479263e-03, 5.87471621e-03,
       2.27301288e-03, -4.36761533e-04, 1.54263445e-03, 3.22630187e-03,
       -1.87189400e-03, 5.09376754e-04, 3.96671798e-03, -7.40511576e-04,
       -2.39184964e-03, 5.30498801e-03, 6.61939615e-04, -1.86905323e-03,
       6.12718146e-03, -1.04933721e-03, -1.74206565e-04, -3.76667967e-03,
       -1.53027452e-03, 4.79518715e-03, -5.20333927e-03, 3.12376511e-03,
       -3.52494465e-03, -1.14609406e-03, 9.53003473e-04, -3.63207335e-04,
       -7.10402848e-04, -2.90933996e-04, 5.77192195e-03, -1.21100864e-03,
       1.42715347e-04, 1.45861064e-03, 1.71419105e-03, -1.54952367e-03,
       -7.92991254e-04, 1.08514377e-03, -6.62402762e-03, -3.94078624e-03,
       -1.33317919e-03, -4.11162525e-03, 2.50644458e-04, -2.25213691e-04,
       5.10038517e-04, -1.12832536e-03, 8.55361752e-04, -9.38245910e-04,
       -1.84560311e-03, 3.46838497e-04, 3.05200438e-03, -5.76343155e-04,
       4.55808034e-03, -1.82726199e-03, -3.15921078e-03, 3.86368926e-03,
       1.48088916e-03, 6.85544568e-04, 4.87949513e-03, -4.27420979e-04,
       3.78427189e-03, -1.62643020e-03, 1.56099210e-03, 1.98089285e-03,
       -5.09000896e-03, 4.41597030e-03, -1.57649163e-03, 2.91796750e-03,
       2.64924020e-03, 4.34547570e-03, 3.81717831e-03, 4.54432936e-03,
       -2.54530722e-04, 2.26413831e-03, 1.61382277e-03, -1.68147427e-03,
       -2.31715199e-03, 5.97656798e-03, 6.50482671e-03, 7.72461947e-03,
       1.98055431e-03, 4.93011717e-03, -3.29702836e-03, -1.75682944e-03,
       -2.21363618e-03, 1.64634245e-03, 4.31734743e-03, 1.90968369e-03,
       2.99561257e-03, 3.73867480e-03, -2.65001901e-04, -1.35866017e-03,
       3.98025848e-04, 1.23747089e-03, 4.97368677e-03, 4.41699103e-03,
       2.90622097e-03, 7.17071630e-03, -7.40553951e-04, 9.74350050e-03,
       4.91012353e-04, -1.31821132e-03, -3.60394683e-04, -5.22618415e-03,
       3.54327704e-03, -8.92568752e-03, 3.68191791e-03, -1.90100155e-03,
       -3.09861428e-03, -4.93208133e-03, -6.06667157e-03, 1.42048928e-03,
       6.61994505e-04, -3.93707829e-04, -3.51186318e-04, 8.46008677e-03,
       -3.92675493e-03, -8.81227606e-04, -2.20727827e-03, 1.73755828e-03,
       -3.57015268e-03, 1.70810113e-03, 5.20983711e-03, 4.29793540e-03,
       4.78450645e-04, 4.08095948e-04, 4.40924778e-04, -3.77159478e-04,
       1.00584852e-03, -3.25147848e-04, 1.02058065e-03, 1.85866654e-03,
       9.54367802e-04, -2.87803984e-03, -2.61752197e-04, 1.15773804e-03,
       -1.70961337e-03, -1.48829853e-03, -4.09372104e-03,
       -2.70929956e-03, 6.76227210e-04, 2.66237790e-03, -4.25821263e-03,
       3.77330161e-03, -1.20692153e-03, -6.10515196e-03, 1.79992849e-03,
       -1.88303366e-03, -3.92004527e-04, -9.59890313e-04, 1.32749358e-03,
       6.53001526e-03, -1.25730131e-03, -5.85844927e-03, -3.89817345e-04,
       2.04223138e-03, -6.98362594e-04, -4.33877017e-03, 3.19666043e-03,
       4.37387312e-03, 2.90509313e-03, -9.34716035e-03, 7.32650096e-03,
       -2.65630707e-03, 1.70307269e-03, 2.45512649e-03, 4.35109902e-03,
       -1.79304613e-03, 1.83515472e-03, 2.94802012e-03, 2.20386335e-03,
       -2.22762465e-03, 5.64193539e-03, -1.87702896e-03, 7.12997164e-04,
       -1.35825272e-03, 1.56992546e-03, 2.90991436e-03, -2.13731616e-03,
       -2.80661415e-03, 7.99697358e-03, -3.65764252e-04, 3.84826353e-03,
       6.39473379e-04, 5.34783071e-03, -7.78654707e-04, 9.69560584e-04,
       -1.86672411e-03, 5.32867527e-03, -4.69028455e-04, -2.72911333e-04,
       4.04686108e-03, -1.91878329e-03, 1.22328682e-04, 1.19692879e-03,
       -1.61670832e-04, 4.31224611e-03, 2.65556877e-03, -2.51134811e-03,
       -6.37840852e-03, 4.08904487e-03, 2.66091689e-03, 1.51324447e-03,
       -2.09871144e-03, -1.36942859e-03, -1.12125103e-03, 3.17712664e-03,
       3.99929611e-03, -4.30658023e-04, 1.76043040e-03, -3.78498458e-03,
       1.25545054e-03, -1.16923044e-03, 1.48630736e-03, 6.59205252e-03,
       1.44916400e-03, 7.33576529e-03, 2.30968674e-03, -9.80748795e-04,
       -8.42151698e-04, -2.07956720e-04, 6.02297066e-03, -1.45715266e-03,
       7.46099185e-03, 3.19709274e-04, -1.22334063e-03, -2.18058703e-03,
       3.20180989e-04, 4.78241779e-03, 1.01091829e-03, -3.44401854e-03,
       3.48402187e-03, 3.85328033e-03, -6.51646405e-04, -5.31980162e-03,
       -1.08053512e-03, -4.59691463e-03, -3.75298993e-03, 4.66819666e-03,
       6.27395697e-03, 8.76380538e-04, -7.55769014e-03, 6.55781990e-03,
       -1.35892513e-03, 2.41987337e-03, 8.82733730e-04, 6.01623324e-04,
       -1.45646371e-03, 4.14490793e-03, -2.46115513e-02 ]
