%YAML:1.0
---
my_detector: !!opencv-object-detector-hog
   winSize: [ 64, 128 ]
   blockSize: [ 16, 16 ]
   blockStride: [ 8, 8 ]
   cellSize: [ 8, 8 ]
   nbins: 9
   derivAperture: 1
   winSigma: 4.
   histogramNormType: 0
   L2HysThreshold: 2.0000000000000001e-01
   gammaCorrection: 1
   nlevels: 64
   signedGradient: 0
   SVMDetector: [ 1.69225186e-02, 3.26920822e-02, 1.91496331e-02,
       -2.64829287e-04, -1.51642729e-02, -1.37927951e-02, 4.77070548e-03,
       4.72206110e-03, 1.82734933e-04, 1.96289159e-02, 3.15175764e-02,
       -2.57316092e-03, -2.51377951e-02, -2.84648445e-02,
       -2.64307279e-02, -4.04857704e-03, 2.24665087e-03, 3.76570784e-03,
       6.67547714e-03, 3.14464346e-02, 4.74133343e-03, -1.26514249e-02,
       -1.66511014e-02, -9.60338162e-04, 2.98840832e-03, 1.14390198e-02,
       -7.64601491e-03, 6.74808118e-03, 3.19300480e-02, 4.83803684e-03,
       -2.12434176e-02, -2.44832337e-02, -1.51799172e-02,
       -7.13379821e-03, -8.09108559e-03, -8.25013407e-03, 1.90038458e-02,
       3.58312204e-02, 9.75290779e-03, -9.82567482e-03, -9.36512277e-03,
       -7.57845957e-03, 1.05812186e-02, 8.87424406e-03, 8.92134011e-03,
       -9.69086774e-03, 1.45841260e-02, -8.17676075e-03, -2.72067748e-02,
       -2.13116277e-02, 2.61334283e-03, 9.42094624e-03, 1.99170187e-02,
       -4.06996254e-03, 1.38065172e-02, 3.44071798e-02, 1.07685700e-02,
       8.93392833e-04, -8.70220922e-03, 3.45811830e-03, 6.14148472e-03,
       6.15203229e-04, -5.61840934e-05, 2.51858542e-03, 1.64112821e-02,
       -9.29449871e-03, -1.82634108e-02, -1.38300052e-02, 1.02677578e-02,
       6.44328445e-03, 8.17588903e-03, -1.66588817e-02, -8.36419058e-04,
       2.17330549e-02, -8.96470994e-03, -1.72259379e-02, -1.31145297e-02,
       2.63249991e-03, 1.54836401e-02, 1.59321222e-02, -5.21996059e-03,
       -4.17615240e-03, 1.60423461e-02, 1.87117548e-03, -2.12470181e-02,
       -2.11335253e-02, -1.40525382e-02, -6.21331763e-03, 7.90130906e-03,
       -8.48211348e-03, 7.47619150e-03, 2.60940623e-02, -3.74694378e-03,
       -1.67537369e-02, -7.00693112e-03, -3.22737591e-03, 4.00337216e-04,
       7.79674854e-03, -1.55976042e-02, 3.93020594e-03, 1.15163345e-02,
       -1.80499591e-02, -2.88365576e-02, -1.22882612e-02,
       -6.34050695e-03, -2.72548781e-03, 7.71492813e-03, 2.32123793e-03,
       3.01057566e-03, 1.80503801e-02, 1.72284637e-02, -8.06235336e-03,
       -2.59982329e-02, -1.01118153e-02, -1.90750416e-05, 1.43769253e-02,
       2.88902898e-03, -1.29146986e-02, 1.07795512e-02, -6.82622718e-04,
       -1.41929472e-02, -2.13955436e-02, 7.90179824e-04, -1.45890415e-02,
       7.36273453e-03, -7.52648013e-03, 1.05043733e-02, 1.04688164e-02,
       7.74949789e-03, -1.40674133e-02, -3.47345248e-02, -7.05257384e-03,
       4.49289149e-03, 2.19267868e-02, 1.33385174e-02, -3.71974381e-03,
       1.10513279e-02, -1.11438450e-03, -6.48425194e-03, -4.07030694e-02,
       1.55953062e-03, -8.11883714e-03, 4.58476134e-03, -8.15385394e-03,
       -1.42657310e-02, 2.86016278e-02, 6.25142315e-03, -1.05810370e-02,
       -4.02174555e-02, 8.80285515e-04, -1.05783315e-02, 3.68188508e-03,
       -4.24330588e-03, 5.32405684e-03, 4.34940010e-02, 5.66982571e-03,
       -2.90601943e-02, -5.37614748e-02, -2.47094259e-02,
       -1.30240414e-02, 5.14638517e-03, -5.75797120e-03, -5.70997596e-03,
       2.70288400e-02, 5.72088873e-03, -2.86138966e-03, -3.20500061e-02,
       1.62651315e-02, 4.32307861e-04, 8.41054972e-03, -3.23901232e-03,
       3.74907651e-03, 3.18045951e-02, 1.52897565e-02, -1.79924946e-02,
       -2.35940143e-02, 4.63952823e-03, -4.74084727e-03, 6.50770729e-03,
       6.12839242e-04, 2.18878109e-02, 4.45722304e-02, 1.41192107e-02,
       -1.62656158e-02, -3.53275836e-02, -1.62801314e-02,
       -2.05361424e-03, 8.34916532e-03, -7.04302639e-03, 3.96440132e-03,
       3.28546166e-02, 1.17833680e-02, -4.72082710e-03, -3.25708948e-02,
       -7.70453783e-03, 2.01792456e-03, 6.49721781e-03, -4.70683724e-03,
       2.10400801e-02, 3.44731659e-02, 1.77619867e-02, -1.84907373e-02,
       -3.20828184e-02, -2.04784749e-03, -5.92378434e-03, 9.89560131e-03,
       1.39192063e-02, 2.61015003e-03, 1.47927273e-02, -6.71476498e-03,
       -1.66209955e-02, -2.82949675e-02, 1.79427105e-03, 3.94230156e-04,
       7.56939035e-03, 1.33787596e-03, -1.15271946e-02, 2.62677353e-02,
       1.36781260e-02, 4.06674837e-04, -1.75430104e-02, -1.19004054e-02,
       6.50942605e-03, 1.57433543e-02, 2.34058802e-03, -2.04848293e-02,
       2.28990223e-02, -2.38398253e-03, -4.30586329e-03, -1.50223244e-02,
       -2.68089399e-02, -1.41291497e-02, 5.14840521e-03, -1.58316232e-02,
       -1.13381855e-02, 1.74694452e-02, 1.48992082e-02, 3.95487808e-03,
       -5.14865853e-03, -9.75723378e-03, 5.55914221e-03, 1.15683200e-02,
       -7.83314463e-03, -2.64424197e-02, 1.33486092e-02, 5.70687279e-03,
       -1.92301907e-03, -2.38248874e-02, -1.73992086e-02,
       -1.15690194e-02, -7.20695965e-03, -3.42054442e-02,
       -8.89608543e-03, 3.30219381e-02, 1.39922770e-02, 1.62356049e-02,
       -5.65302791e-03, -2.31620651e-02, -1.05181104e-02, 4.02912870e-03,
       2.00941460e-03, 2.98515172e-03, 2.04207860e-02, 8.51969793e-03,
       -6.57142047e-03, -1.16698779e-02, -3.52350399e-02,
       -2.66770124e-02, -5.60616935e-03, 8.68701097e-03, -1.17544606e-02,
       1.59928706e-02, 1.82434265e-02, 2.09594462e-02, -2.04192065e-02,
       -2.03131535e-03, -1.80054049e-03, 5.44828735e-03, -1.03938067e-02,
       -1.26864361e-02, -3.48214619e-03, 2.32863706e-03, 6.26325840e-03,
       -2.75025237e-02, -2.11116280e-02, -2.85759624e-02,
       -5.19201579e-03, -7.61315087e-03, 1.72073506e-02, 1.95859410e-02,
       1.29377032e-02, -4.44976427e-03, 2.18627974e-03, -3.09784850e-03,
       -9.44815762e-03, 4.20674542e-03, 1.46126747e-02, 1.04881199e-02,
       9.11309570e-03, 1.07362738e-03, -4.87714168e-03, -1.34505564e-02,
       -1.77369919e-02, -2.78434027e-02, -1.14983795e-02, 8.81034695e-03,
       3.47510399e-03, 8.72037653e-03, 1.74159724e-02, 2.05151346e-02,
       -2.11751293e-02, -5.24812320e-04, -6.91100676e-03, 5.79884509e-03,
       8.81525502e-03, -9.53278504e-03, 7.96135981e-03, 8.22413363e-04,
       4.87558340e-04, -2.70498153e-02, -1.76650044e-02, -1.18726501e-02,
       -1.52058696e-04, -7.68526644e-03, -4.69354913e-03, 2.25484092e-02,
       1.50302798e-02, -1.41440397e-02, -1.79480687e-02, -1.66193135e-02,
       -9.62952524e-03, 7.33457564e-04, -9.63421911e-03, 1.48136052e-03,
       3.44849266e-02, 1.86145194e-02, -4.60955873e-03, 2.60919728e-03,
       3.16175423e-03, -6.94153830e-03, 7.80908763e-03, -6.19165413e-03,
       -1.61873698e-02, 1.55564090e-02, 2.61641457e-04, -1.82946101e-02,
       -1.89914703e-02, -8.74918327e-03, 3.85244098e-03, 1.40555669e-02,
       -7.88374245e-03, 1.57236028e-03, 2.61088684e-02, 6.77586766e-03,
       1.76169758e-03, -7.53205316e-03, 1.15190018e-02, -8.44993629e-04,
       1.32988971e-02, -3.74178693e-04, -1.28719187e-03, 1.14955325e-02,
       1.01234270e-02, 1.67938961e-05, 1.49704069e-02, 4.90330625e-03,
       -5.25868090e-04, 7.93146901e-03, 2.22152635e-03, 1.35689499e-02,
       1.96481384e-02, 5.20408200e-03, 1.23403780e-02, -5.80579601e-03,
       -2.34806072e-03, -3.88561981e-03, -5.86110167e-03,
       -2.03870633e-03, -8.50515999e-03, 1.38089173e-02, 3.04850400e-03,
       -5.68663795e-03, -2.06464971e-03, 3.27841705e-03, -5.07067656e-03,
       1.30413137e-02, -4.59963642e-03, -1.42268250e-02, -1.12129636e-02,
       -2.15146020e-02, -1.34523986e-02, -5.10447053e-03,
       -2.08089687e-02, -1.53886657e-02, -2.63683703e-02,
       -2.28368137e-02, 1.59618184e-02, 3.16810347e-02, 1.28742680e-03,
       -4.03756741e-03, 1.39252534e-02, -1.08894957e-02, 2.54072103e-04,
       1.49951437e-02, 1.45007670e-02, 1.44238370e-02, 1.91357341e-02,
       -1.07966876e-02, -4.79825288e-02, -1.41292131e-02,
       -1.04876999e-02, 4.01599566e-03, 2.38004196e-02, 1.75506826e-02,
       -6.31768024e-03, -1.04095796e-02, -2.09566597e-02,
       -1.48253245e-02, 1.27782999e-02, -1.38172442e-02, -6.43582363e-03,
       -1.03363851e-02, -4.23234049e-03, 3.34841083e-03, -1.40851839e-02,
       -2.45585795e-02, -3.26041244e-02, -3.34637472e-03,
       -4.89666546e-03, -1.84736662e-02, -4.07517934e-03, 1.39505081e-02,
       1.83641799e-02, 2.51900088e-02, -5.91094699e-03, -2.49837860e-02,
       -1.24599896e-02, -1.18434204e-04, 1.12115312e-02, 2.22620834e-02,
       1.72275212e-02, 1.08963558e-02, 2.39341753e-03, -3.15556303e-02,
       -2.35855058e-02, -3.69007257e-03, 1.36048971e-02, 1.76329594e-02,
       3.70433070e-02, 3.62429023e-02, 7.67079368e-03, -4.87251114e-03,
       -2.09603366e-02, -2.29557995e-02, -1.27288802e-02, 2.40361993e-03,
       1.15802046e-03, 5.47532225e-04, 1.12496177e-02, -5.87035343e-03,
       -1.75191704e-02, -3.90157439e-02, -3.35195065e-02,
       -1.12271716e-03, 6.75288215e-03, -3.88083025e-03, -4.35744366e-03,
       7.53065385e-03, 1.79609936e-02, 5.52443648e-03, -1.54811135e-02,
       -1.43702226e-02, -1.18807498e-02, 3.64094391e-03, 2.26323009e-02,
       3.70083675e-02, 3.71176638e-02, 8.08558427e-03, 4.36170166e-03,
       -7.63240037e-03, 2.91855913e-03, -2.35139225e-02, -1.49424942e-02,
       1.19392965e-02, 2.70876400e-02, 1.58082228e-02, 1.35234483e-02,
       -6.27048593e-03, -2.87023000e-02, -3.24439779e-02,
       -2.34390050e-02, -8.56403355e-03, -2.38431130e-05, 4.95022396e-03,
       1.30331554e-02, 2.70656534e-02, 1.69777367e-02, -9.41219274e-03,
       -3.45680118e-03, -3.26473713e-02, -3.21983173e-02,
       -3.91107053e-03, 7.93805905e-03, 1.27790030e-02, -1.96680194e-03,
       1.81686820e-03, -1.27728237e-02, -9.18877777e-03, -2.54402384e-02,
       -6.21873932e-03, 4.61990479e-03, 1.25727132e-02, -6.24562381e-03,
       1.84455384e-02, 2.49029230e-02, -1.04978764e-02, -1.72608066e-02,
       -2.80791502e-02, -6.29811687e-03, 5.91569720e-03, 2.08079983e-02,
       1.11136930e-02, 3.18839261e-03, 1.05541116e-02, -6.58648834e-03,
       -1.12972884e-02, -3.19096111e-02, -1.43189784e-02, 1.46713771e-03,
       -3.96879809e-03, -2.68654036e-03, 8.17850791e-03, 2.94547714e-02,
       1.09835919e-02, -1.11809084e-02, -2.58477870e-02, -1.00389905e-02,
       1.43200289e-02, 1.09720230e-02, 2.20005531e-02, -1.13396754e-03,
       2.98851281e-02, 1.03514213e-02, -6.83062477e-03, -1.76143274e-02,
       -5.43629285e-03, 2.56620639e-04, 1.92064289e-02, 7.88797188e-05,
       9.63154901e-03, 3.57922725e-02, 2.64508482e-02, 9.26660432e-04,
       -3.14257406e-02, -4.14982764e-03, -1.57983263e-03, 1.27720200e-02,
       1.76761160e-03, 1.78630988e-03, 2.03348100e-02, 1.04026608e-02,
       -8.13078694e-03, -4.56196889e-02, -9.97905992e-03,
       -1.65748817e-03, 2.54939664e-02, 1.32007024e-03, -5.92842745e-03,
       1.55469971e-02, 2.22555753e-02, 7.19655724e-03, -3.37767005e-02,
       -2.36070203e-03, 5.20853698e-03, 1.87841840e-02, -8.97224713e-03,
       1.83152873e-02, 2.60071140e-02, 1.82739813e-02, 4.09492850e-03,
       -2.33860966e-02, 3.02541372e-03, 1.51214432e-02, 6.84986543e-03,
       -6.53322134e-03, 3.16098966e-02, 2.01905724e-02, 1.47219514e-02,
       -1.45118684e-02, -1.58244167e-02, 3.85194039e-03, 1.07025146e-03,
       1.37699833e-02, -2.44072615e-03, 4.83044982e-03, 1.98992025e-02,
       3.18795629e-02, 1.91697329e-02, -2.18443852e-02, 8.61141551e-03,
       9.26254597e-03, 6.66431617e-03, -1.76862013e-02, 2.38786116e-02,
       1.78943779e-02, 1.51461018e-02, -2.65576201e-03, -1.06348353e-03,
       -1.56315845e-02, -1.64953584e-03, -8.04943556e-04,
       -1.41919283e-02, 1.84951909e-02, 1.70811657e-02, 5.90856420e-03,
       -1.82617512e-02, 5.52580133e-03, -1.04255055e-03, 6.19816710e-04,
       1.20405992e-02, -3.50147509e-03, -1.95485447e-02, 2.37204577e-03,
       -1.13359094e-02, -2.01014709e-02, -1.08127333e-02,
       -5.66750392e-03, 9.06079914e-03, 1.09593775e-02, -1.03165628e-02,
       1.27327181e-02, 1.42951049e-02, -4.76160552e-03, -1.74651686e-02,
       1.03736324e-02, -5.93787991e-03, -8.62256810e-03, -5.06810937e-03,
       -1.72947478e-02, -7.71389203e-03, 1.23324234e-03, -1.29434001e-02,
       -2.37450097e-03, -5.36892517e-03, -9.38902702e-03,
       -5.16827218e-03, -2.19917553e-03, -2.62903366e-02,
       -3.88818630e-03, 1.47626884e-02, 9.07432009e-03, -4.16287407e-03,
       -1.51387872e-02, -1.52403861e-03, 3.74688348e-03, 3.48084024e-03,
       7.49105820e-04, -5.51147619e-04, 2.58102622e-02, -6.65545650e-03,
       -9.13259853e-03, -3.54640111e-02, -2.43076892e-03,
       -7.01496005e-03, 6.38891594e-04, -7.68709416e-03, 3.42861889e-03,
       1.66592542e-02, 2.37879306e-02, 2.77427118e-02, -1.50132040e-03,
       -1.71705696e-03, 4.98629501e-03, -1.19433245e-02, -1.71630867e-02,
       -6.12819521e-03, 2.37096697e-02, -5.14425756e-03, 6.00100448e-03,
       -9.38769430e-03, -5.30705368e-03, -3.69455735e-03,
       -1.65828895e-02, -2.46968064e-02, 4.72944230e-03, 2.24362705e-02,
       -6.83453260e-03, -1.93996020e-02, -2.05634423e-02, 1.29064079e-02,
       1.21821475e-03, 2.32727849e-03, -4.11621109e-03, 2.40950030e-03,
       2.24174876e-02, 1.45917535e-02, -9.43969842e-03, -2.32942142e-02,
       2.97924411e-03, -3.22209322e-03, 7.75338383e-03, -9.22671147e-03,
       -2.15541199e-02, 2.10563447e-02, -1.10374074e-02, -2.60447096e-02,
       -8.30855034e-03, -5.95756620e-03, -8.90060980e-03,
       -1.04109151e-02, -2.34576631e-02, -9.22932848e-03, 2.54871678e-02,
       3.57058365e-03, -2.33563595e-02, -1.75921787e-02, 3.20087909e-03,
       -1.09924292e-02, -4.37646080e-03, -2.64713131e-02, 1.05848508e-02,
       1.49650238e-02, 1.38258040e-02, -3.53943696e-03, -2.65899450e-02,
       -1.05111543e-02, -9.54588316e-03, 9.83505882e-03, 4.43671877e-03,
       1.27246371e-02, 2.39328798e-02, 1.83341815e-03, 3.43457889e-03,
       -2.91189402e-02, -1.56034883e-02, -2.47264095e-02, 4.57023643e-03,
       9.26717403e-05, 3.15785734e-03, 1.52038382e-02, 4.66969470e-03,
       -1.17329508e-02, -3.49748656e-02, -1.45174619e-02,
       -6.90564420e-03, 9.90357343e-03, -1.39721378e-03, 1.86359994e-02,
       2.30045505e-02, -4.97619295e-03, -1.27790319e-02, -4.77338731e-02,
       -1.90181788e-02, -1.96881425e-02, 1.38609773e-02, 1.26407081e-02,
       6.44040806e-03, 1.79807264e-02, 1.01419957e-02, 7.88977090e-03,
       -4.89299931e-03, -1.51091572e-02, -1.36626624e-02, 9.44386609e-03,
       -1.01370346e-02, -1.37116304e-02, -1.18282926e-03,
       -1.17363231e-02, -1.41236391e-02, -2.07782127e-02,
       -1.96182095e-02, -2.23820452e-02, -8.05126037e-03,
       -3.05042099e-02, 1.25028612e-02, 3.12483404e-02, 1.36853997e-02,
       9.20993835e-03, -2.14437246e-02, -9.95348860e-03, -1.56797469e-02,
       9.71136242e-03, 4.84847883e-03, -5.81078976e-03, 6.51425496e-03,
       -1.22666988e-03, 5.81084471e-03, -2.72143725e-03, -1.67216081e-02,
       -3.17041352e-02, -1.40558388e-02, -1.40806250e-02,
       -3.92161636e-03, 9.25229583e-03, 3.50455986e-03, -1.18962454e-03,
       -2.07798760e-02, 5.08780498e-03, 4.32180334e-03, 7.74061680e-03,
       -1.66564491e-02, -3.72483837e-03, 1.28352325e-02, -1.00031251e-03,
       -1.62491165e-02, -2.87063289e-02, -1.78193431e-02,
       -1.47162359e-02, 3.85434832e-03, -2.08573584e-02, 7.62906065e-03,
       2.58716065e-02, 1.51230553e-02, 3.94202583e-03, 1.93838333e-03,
       -6.31442899e-03, -1.01305684e-02, 4.09708853e-04, -8.84587225e-03,
       1.05550233e-03, 2.90532783e-02, -2.42630555e-03, -1.29456129e-02,
       -2.88360640e-02, -3.61812636e-02, -3.84775251e-02, 1.88125263e-03,
       -2.02012900e-02, -2.63219955e-03, 1.08014420e-02, 1.13108521e-02,
       -1.59996003e-03, -4.08028774e-02, 2.96132430e-03, -3.73120350e-03,
       9.25630890e-03, -5.64165646e-03, -1.35741970e-02, 9.50671919e-03,
       1.45592345e-02, -6.00701198e-03, -4.10780981e-02, -1.74217783e-02,
       -2.00998969e-02, 4.37650550e-03, -4.82833292e-03, 4.84782783e-03,
       1.80982891e-02, 1.68151557e-02, 1.33640664e-02, -2.69587599e-02,
       4.08216752e-03, -6.10150537e-03, 1.72772203e-02, -9.79629811e-03,
       -2.66070361e-03, 4.46187286e-03, 2.28958298e-02, 1.67594273e-02,
       -1.02608278e-02, 2.22592824e-03, -1.49131995e-02, 8.28792714e-03,
       -9.06990189e-03, -1.05699925e-02, 1.83945838e-02, 1.20538417e-02,
       -1.34293521e-02, -2.36072652e-02, -2.22913892e-04,
       -3.36990179e-03, 9.69798211e-03, 1.08785031e-03, -1.45483791e-04,
       1.86606329e-02, 1.08675342e-02, -1.42023694e-02, -2.15620287e-02,
       1.66758262e-02, 1.36955804e-03, 1.68777276e-02, -1.13286369e-03,
       1.11723794e-02, 1.60804056e-02, 1.93833802e-02, 7.07763759e-03,
       -5.02082519e-04, 4.11021663e-03, -1.15237767e-02, 1.12826908e-02,
       9.49120615e-03, 8.12260900e-03, -2.38203630e-03, -4.40165680e-03,
       -1.89748723e-02, -2.46303529e-02, 1.28477067e-02, -1.41278040e-02,
       1.52386507e-04, 7.37893861e-03, 8.30434915e-03, 2.25369651e-02,
       2.01809257e-02, -1.43038156e-02, -1.41980324e-03, 4.30849241e-03,
       2.99926871e-03, 2.09739394e-02, -2.10381043e-03, -9.47883353e-03,
       -2.15359475e-03, -6.88588154e-03, -2.55200602e-02,
       -1.21172320e-03, -9.59917624e-03, 6.72394410e-04, 1.66673306e-03,
       -4.54599736e-03, -1.00627926e-03, 5.00042504e-03, 1.45044420e-02,
       -1.26015898e-02, 3.54346051e-03, 1.36931725e-02, -6.01108652e-03,
       9.81488638e-03, -1.20182857e-02, -9.95243434e-03, -1.24422172e-02,
       -8.36085714e-03, -2.54932474e-02, -6.99060317e-03, 1.15175052e-02,
       -3.55948810e-03, 1.18796239e-02, -2.33341698e-02, -1.07323499e-02,
       -2.37010629e-03, -1.17108999e-02, -1.35829002e-02, 1.52464779e-02,
       4.24518075e-04, 8.20626877e-03, 4.03565355e-03, 4.11358336e-03,
       -7.35793903e-04, 5.04606077e-03, -8.61183088e-03, -1.67478267e-02,
       5.60200028e-03, 7.16977660e-03, -2.36646412e-03, -6.89507881e-03,
       9.77847539e-03, -8.99184495e-03, 9.14439373e-03, -2.14962568e-03,
       -1.32967904e-02, 1.71224878e-03, 6.28079567e-03, 8.09149258e-03,
       1.37801524e-02, -9.17810854e-03, -7.06217950e-03, 9.81956627e-03,
       -2.24937312e-03, -9.59470496e-03, -1.74257113e-03, 1.18124846e-03,
       -3.62277008e-03, -3.46652139e-03, -1.39408605e-02, 8.84199329e-03,
       6.24291366e-03, -4.17076517e-03, -4.75791981e-03, -9.51722381e-04,
       1.67815518e-02, 2.84919026e-03, 1.11429358e-03, 9.43403039e-03,
       1.30940126e-02, 2.51090596e-03, -1.37903988e-02, -4.90239030e-03,
       9.66386683e-03, 1.11811766e-02, -3.52956424e-03, 9.54151060e-03,
       7.55487895e-03, 2.44888989e-03, 1.32987229e-02, 1.54023338e-02,
       -8.95700231e-03, -1.18138557e-02, -2.31055613e-03,
       -8.44649132e-03, -1.27166267e-02, -1.34092094e-02, 6.55788463e-03,
       9.38224606e-03, 4.38941829e-03, 1.18306316e-02, -6.43496495e-03,
       -6.42631855e-03, -1.49604054e-02, -4.18000901e-03,
       -6.46683481e-03, 4.76703700e-03, 1.47576397e-03, -1.51254172e-02,
       -7.68459821e-03, -2.13454012e-02, -5.36505086e-03,
       -2.98329210e-03, 1.46368938e-02, 6.63790805e-03, 1.29648922e-02,
       1.91573575e-02, 4.22199862e-03, 1.07185682e-02, -1.90488026e-02,
       -1.53945489e-02, 4.19182843e-03, 1.80792306e-02, 1.76072195e-02,
       -8.24938342e-03, -3.73148057e-03, -9.85839171e-04, 1.46197416e-02,
       -1.66080128e-02, -2.13069413e-02, -2.16567963e-02, 6.96125301e-03,
       1.24151004e-03, -1.52508970e-02, 1.83609445e-02, 4.70345374e-03,
       1.52379088e-02, -4.33786685e-04, -6.64635375e-03, -8.93900869e-04,
       1.51965590e-02, 1.52440919e-02, -6.89660152e-03, 1.73040722e-02,
       7.93781038e-03, 8.81333649e-03, -1.33304894e-02, -1.21672889e-02,
       -5.14947670e-03, -9.98828327e-04, -5.40535478e-03, 2.84651667e-03,
       2.97520813e-02, 2.48155072e-02, 9.46293492e-03, -1.14516951e-02,
       -1.05815381e-02, 9.87480395e-03, 2.54298337e-02, 1.60157196e-02,
       -1.41889742e-02, 7.82830268e-03, 7.97632523e-03, 8.30728374e-03,
       -2.62219235e-02, -2.13797502e-02, -2.46294332e-03, 4.63403296e-03,
       -3.85426357e-03, 1.60322972e-02, 2.72267908e-02, 2.45241001e-02,
       1.95692871e-02, -3.26182619e-02, -1.37287434e-02, -1.25790248e-02,
       1.50770964e-02, 1.78818777e-02, 1.15227802e-02, 2.31374297e-02,
       4.83607175e-03, 1.41218049e-03, -4.58292663e-02, -1.14273382e-02,
       2.38986700e-04, 2.42821556e-02, 4.77038790e-03, -9.29144584e-03,
       1.35627799e-02, 1.61922853e-02, 2.35129837e-02, -1.97344162e-02,
       2.36003543e-03, -2.01950519e-04, 2.16607619e-02, -1.93662208e-03,
       1.09816575e-02, 1.32628391e-02, -8.05109739e-03, 2.09665876e-02,
       -1.43939573e-02, -1.89980231e-02, 3.30126588e-03, 1.38704358e-02,
       5.69561496e-04, -2.65613873e-03, 4.55622049e-03, 5.10398019e-03,
       2.85443962e-02, -8.70577525e-03, -8.31464212e-03, -8.07078613e-04,
       2.15651635e-02, 1.29710871e-03, -8.40756053e-04, 2.27867663e-02,
       2.85195578e-02, 2.22828444e-02, -1.43209472e-02, 3.98499286e-03,
       -6.64858986e-03, 1.51489610e-02, -1.05455993e-02, -1.93451461e-03,
       1.62278526e-02, 2.01103855e-02, -6.82924595e-03, -1.10082086e-02,
       -2.19494831e-02, -9.21932980e-03, -2.30715275e-04,
       -2.62997728e-02, -3.08315246e-03, 9.26539674e-03, 2.48644967e-02,
       2.98343450e-02, 6.98243175e-03, -8.28906056e-03, -6.30581228e-04,
       1.59568656e-02, 2.11904827e-03, -4.11438523e-03, 6.76322868e-03,
       1.22174993e-02, -5.53841516e-03, -8.52763373e-03, -2.85115298e-02,
       -1.05484119e-02, 8.89306830e-04, -1.20978802e-02, -8.71485285e-03,
       1.65546015e-02, 5.02305292e-03, -1.93742439e-02, 1.13218958e-02,
       -2.69219233e-03, -3.69722862e-03, -3.25231487e-03,
       -2.45399587e-02, -1.36336265e-02, 1.15803778e-02, -2.23381817e-03,
       -3.28063546e-03, 2.73865485e-03, -7.51525955e-03, -4.44532372e-03,
       -3.05017177e-03, -2.39097103e-02, -2.48757028e-03, 1.24904066e-02,
       6.53928425e-03, -9.98899899e-03, -2.03371495e-02, -2.78144144e-02,
       -1.24646137e-02, 3.35565011e-04, -9.43215284e-03, -3.32593708e-03,
       9.39803012e-03, 1.83477256e-04, 3.03759449e-03, -2.53393240e-02,
       -1.84410941e-02, -2.56179962e-02, -1.10869408e-02,
       -8.79860949e-03, -3.42118996e-03, 1.02907810e-02, 9.85882804e-03,
       1.33583331e-02, -9.20233876e-03, 1.08575150e-02, 6.94574695e-03,
       -1.25780003e-02, -2.10764240e-02, -2.26131063e-02, 1.26120755e-02,
       -5.80639858e-03, -8.96735862e-03, -2.71515939e-02, 9.60053410e-03,
       -6.45914301e-03, -1.57989077e-02, -3.76525372e-02,
       -7.98920984e-04, 7.76473014e-03, 1.11708799e-02, 2.70932112e-02,
       -1.79474931e-02, 3.97099368e-03, -5.51624922e-03, 1.38765434e-03,
       -1.76350458e-03, -1.53316921e-02, 2.36182939e-02, -1.31582341e-03,
       2.38327216e-03, -2.59086806e-02, 1.60240568e-02, 1.60944194e-03,
       2.04905495e-03, -2.76032016e-02, -2.51065157e-02, 1.23587381e-02,
       -1.12895975e-02, -3.30596082e-02, -1.25918770e-02,
       -5.84643707e-03, -4.03468823e-03, 2.78179097e-04, -1.71208140e-02,
       -1.49216764e-02, 1.21191619e-02, -1.36546453e-03, -1.98593494e-02,
       -1.24664800e-02, -2.84701958e-03, -9.42716189e-03,
       -3.80698657e-05, -1.93784516e-02, -5.16085885e-03, 1.94064528e-02,
       5.85372513e-03, -1.39311133e-02, -1.66148487e-02, 8.14560521e-03,
       7.02624349e-03, 6.14908151e-03, -1.06104948e-02, 8.24122317e-03,
       1.73512604e-02, -1.17533784e-02, -4.12337715e-03, -2.25472031e-03,
       -3.71992402e-03, -6.23312918e-03, -1.52862358e-05,
       -2.42745336e-02, -8.45587533e-03, 4.35249647e-03, -4.52600326e-03,
       -2.29926407e-02, -2.64695734e-02, -1.46461586e-02,
       -3.63263837e-03, 5.59068937e-03, -7.18122115e-03, 1.34148845e-03,
       1.88212674e-02, -4.18826845e-03, -2.72985995e-02, -4.73591425e-02,
       -2.62020063e-02, -6.21816888e-03, 1.32437889e-02, 1.24150794e-03,
       4.94297035e-03, 9.74813197e-03, -1.16123436e-02, -2.31536734e-03,
       6.87858462e-03, -1.11419065e-02, -2.61948910e-03, 3.97861656e-03,
       -8.90882220e-03, 7.21047632e-03, 1.24308700e-02, -9.99472849e-03,
       -9.19569377e-03, -1.02552930e-02, -1.01881428e-02,
       -1.36640770e-02, 7.55413715e-03, 3.86612094e-03, 2.46865372e-03,
       2.96136197e-02, 1.21704573e-02, 1.11445657e-03, -2.72900425e-02,
       -1.11087086e-02, -3.78870941e-03, 1.64413191e-02, 1.10427644e-02,
       -1.89982560e-02, 7.48074660e-03, 8.31492525e-03, -3.55353905e-03,
       -1.25455782e-02, -1.89869944e-02, -2.81944480e-02,
       -7.55574321e-03, -1.99479032e-02, 5.73090464e-03, 1.80131029e-02,
       1.34741617e-02, 9.52680316e-03, -6.48411131e-03, -1.97897051e-02,
       -1.97738726e-02, 9.37081035e-03, 1.84843410e-02, -2.65970454e-02,
       -4.60227951e-03, 8.96838866e-03, 4.37372690e-03, -7.74700567e-03,
       -2.83326320e-02, -2.78005470e-02, -7.64850155e-03,
       -1.03197433e-02, 5.73458942e-03, 2.30247378e-02, 1.58775896e-02,
       -8.62800516e-03, 4.46590595e-03, -1.09574143e-02, -8.87039583e-03,
       1.03941802e-02, 4.90607286e-04, 1.25238777e-03, 1.71647035e-02,
       -5.98482741e-03, -1.54720778e-02, -2.28999723e-02,
       -3.89683619e-02, -3.47260199e-02, 3.13730771e-03, -8.28683749e-03,
       -3.26071982e-03, -2.54380429e-04, 8.73834454e-03, 6.63401978e-03,
       1.03288516e-02, -1.28052393e-02, -9.21345782e-03, 1.92883855e-03,
       2.93931644e-03, 6.16786722e-03, -8.08566518e-04, -1.12737883e-02,
       -1.14456834e-02, -8.58706236e-03, -2.36126985e-02,
       -2.62025520e-02, -1.31138712e-02, 4.90008527e-03, -5.96248545e-03,
       1.24682998e-02, 4.76784399e-03, 5.02467970e-04, -2.73085274e-02,
       -1.01326378e-02, -1.38496868e-02, 7.52229802e-03, -4.23919270e-03,
       1.54942868e-03, 7.99597427e-03, 2.13365536e-02, 8.14399496e-03,
       -1.87827162e-02, -4.92749689e-03, -1.72892846e-02,
       -3.88460467e-03, -6.04754640e-03, 6.58952538e-03, 1.54548474e-02,
       9.02739353e-03, -1.48581965e-02, -2.15631276e-02, -8.40536878e-03,
       -1.32258153e-02, 7.01428112e-03, 4.68816375e-03, -2.77717202e-03,
       1.06798178e-02, 5.53228799e-03, -6.02655159e-03, -3.11746057e-02,
       4.95852949e-03, -6.31370815e-03, 1.28354486e-02, 8.28106888e-03,
       1.28771625e-02, 1.83250196e-02, 1.63014848e-02, 8.21311865e-03,
       -1.05532166e-02, -1.01762954e-02, -1.44377314e-02,
       -4.24328400e-03, 5.20257512e-04, -6.37380593e-03, -1.87890197e-03,
       -1.62972547e-02, -3.79175171e-02, -2.93193869e-02,
       -1.90017857e-02, -2.18093526e-02, -9.91270505e-03, 1.16192480e-03,
       1.33689179e-03, 1.70511603e-02, 1.38964877e-02, 2.03100629e-02,
       4.89271153e-03, 9.64381732e-03, -1.81859697e-03, -9.37814242e-04,
       -2.03187112e-03, -4.33546398e-03, 1.39424149e-02, -1.26084788e-02,
       -2.05096062e-02, -1.18244737e-02, -1.56610012e-02,
       -2.02662069e-02, -1.34441971e-05, 7.93538988e-03, -1.21130403e-02,
       1.20700486e-02, 5.75448992e-03, -2.42919642e-02, -1.03799822e-02,
       -3.48392548e-03, -1.27015607e-02, 2.01475434e-03, -4.44781559e-04,
       -1.01113925e-02, -2.90541706e-04, 2.45019840e-03, -1.96231399e-02,
       -2.31352430e-02, 1.93720427e-03, -2.31683832e-02, -1.24793584e-02,
       -2.92751007e-02, 1.23038432e-02, 2.69817226e-02, 1.26860281e-02,
       -1.10783633e-02, 9.49933659e-03, -8.50684755e-03, -2.08749510e-02,
       1.10626947e-02, 2.32982393e-02, 7.08248513e-03, 6.81732921e-03,
       2.16211099e-02, -7.04753865e-03, -1.08631421e-02, -5.28251566e-03,
       -1.55778956e-02, -1.51162874e-02, -1.17012514e-02, 2.56243511e-03,
       1.51357213e-02, 1.27316248e-02, -5.27745625e-03, 2.45592929e-03,
       8.83075222e-03, -2.21193256e-03, 1.52027947e-04, -1.79624911e-02,
       -1.82108022e-02, 7.69921858e-03, -8.87132995e-03, -2.08883025e-02,
       -1.46085937e-02, 2.66596815e-03, -7.79449567e-03, -6.99182972e-04,
       -1.21535873e-02, 2.90948548e-03, 1.74201746e-02, 2.72747967e-02,
       6.81289611e-03, 7.77483592e-03, -2.54888623e-03, -2.65423278e-03,
       -5.77261904e-03, -1.20519819e-02, -2.44767182e-02, 7.22094160e-03,
       3.41022131e-03, -7.52986083e-03, -3.35010863e-03, -9.84720513e-03,
       -1.55069660e-02, -4.29550512e-03, -1.39200669e-02,
       -7.67244678e-03, 9.24486853e-03, -6.59657875e-04, -3.20269652e-02,
       -1.33064929e-02, -5.51986508e-04, -6.77131396e-03, 7.12340046e-03,
       -5.62731829e-03, -4.61670989e-03, 9.39950533e-03, 1.77392643e-03,
       6.61144825e-03, -1.18720355e-02, -2.37195077e-03, -1.62599981e-02,
       -4.90252580e-03, -1.24190317e-03, -1.97184402e-02, 4.49169986e-03,
       3.55117314e-04, -1.45810107e-02, 4.79438016e-03, 1.38929638e-03,
       -9.60625987e-03, 7.98721798e-03, -1.74888456e-03, 6.72891969e-03,
       1.00046778e-02, 3.02439067e-03, 2.33401693e-02, 1.68922395e-02,
       1.58447474e-02, -1.00755822e-02, -4.74053295e-03, 9.04439576e-03,
       -1.17503833e-02, -9.49085504e-03, -5.47976093e-03, 3.77854402e-03,
       -1.90138705e-02, -8.58485140e-03, -1.72080640e-02,
       -8.62715999e-04, -9.19306884e-04, -2.44726818e-02,
       -4.70818253e-03, -1.95052184e-03, -3.32838600e-03,
       -9.87562817e-03, -1.16123995e-02, -3.29311960e-03, 1.10181337e-02,
       -6.15221495e-03, 2.35321000e-02, 9.49359965e-03, 1.25455251e-03,
       1.58197340e-02, -1.02857826e-02, 3.88658722e-03, -8.09520483e-03,
       -3.10042640e-03, 1.78523809e-02, 2.53026802e-02, 1.28804194e-02,
       9.46297403e-03, 1.40047548e-02, 3.94511875e-03, -8.03593546e-03,
       2.56420509e-03, 1.53575940e-02, 1.41845625e-02, -2.19854005e-02,
       -3.43590020e-03, -1.00338319e-02, -9.64302011e-03,
       -1.84064601e-02, -1.12014450e-02, 1.06625231e-02, 1.18493941e-02,
       -9.81898420e-03, 1.25751849e-02, 2.46291030e-02, 7.43120676e-03,
       -1.97300948e-02, -4.27726842e-02, -1.65390987e-02,
       -2.48430087e-03, 1.67394988e-02, 1.89032089e-02, 7.48703210e-03,
       6.23956695e-03, -1.15194460e-02, -8.80856160e-03, -8.87348596e-03,
       -2.54354876e-04, 1.71404500e-02, 1.98047515e-02, -5.72367944e-03,
       2.09541433e-02, 3.48073989e-02, -3.99042293e-03, -2.24992186e-02,
       -3.11488919e-02, -9.49682295e-03, 1.80855766e-02, 2.10563317e-02,
       9.37018543e-03, 1.11441435e-02, 5.84448036e-03, -9.96815134e-03,
       2.41741654e-03, -1.51515584e-02, -1.27732391e-02, 3.14567215e-03,
       1.02921044e-02, -2.24501616e-03, 1.24301622e-02, 1.33267906e-03,
       2.36907904e-03, 3.72291822e-03, -1.25191202e-02, -1.40315881e-02,
       3.94309172e-03, 1.58635303e-02, 1.06007010e-02, 3.33439163e-03,
       9.59222950e-03, -1.30521152e-02, 1.05747348e-02, -6.60355482e-03,
       -3.95399472e-03, 3.53001896e-03, 1.25325611e-02, -7.48275407e-03,
       1.15522938e-02, 1.11898575e-02, -3.60594271e-03, 2.50545680e-03,
       -1.46071874e-02, -1.29503431e-03, 5.91536192e-03, 1.94752626e-02,
       8.20732489e-03, 8.16686079e-03, 1.26637099e-02, 1.17905606e-02,
       3.48561979e-03, 2.66800239e-03, -1.73945427e-02, 7.42495107e-03,
       1.43146962e-02, 9.78957582e-03, 7.72291841e-03, 1.59263089e-02,
       1.99911464e-02, 1.17849056e-02, -2.46753637e-03, -2.07757056e-02,
       -1.20517770e-02, 1.11128939e-02, 3.38478759e-03, 1.03256768e-02,
       2.22577080e-02, 1.28211426e-02, -3.80981457e-03, -2.94510666e-02,
       -1.18580721e-02, -6.24167686e-03, 7.03480747e-03, 1.09404922e-02,
       2.76712258e-03, 3.09781302e-02, -2.99234199e-03, -5.04666334e-03,
       -2.31306404e-02, -5.00818854e-03, -1.07951732e-02,
       -4.08243388e-04, 3.38522741e-03, 4.36015334e-03, 2.08927644e-03,
       6.41660346e-03, 4.85875644e-03, -1.33270761e-02, -1.53319035e-02,
       -2.22720252e-03, 1.13103399e-02, -3.19754798e-03, 6.94746803e-03,
       -4.98705404e-03, 5.43243065e-03, 7.81926699e-03, -3.66478972e-02,
       -3.07502951e-02, -1.89680494e-02, 1.58280507e-03, 4.10144590e-03,
       -6.71488186e-03, -2.07159738e-03, -1.55209536e-02,
       -1.03750918e-03, 1.63611153e-03, 1.12083592e-02, 1.17599284e-02,
       1.28156291e-02, -2.19097850e-03, -2.65984554e-02, -2.34904159e-02,
       -4.65838099e-03, 1.09274713e-02, -7.69187976e-03, -2.87230313e-02,
       7.57532939e-03, 1.59547366e-02, 4.13430436e-03, 6.15543686e-04,
       -1.52122346e-03, 1.14596942e-02, 1.66119412e-02, -3.16741578e-02,
       -9.95221268e-03, -3.16086784e-03, 8.29270203e-03, 3.30628129e-03,
       -1.47175072e-02, 1.32118573e-03, 1.04200747e-02, 7.36846635e-03,
       -3.07964329e-02, 8.20226315e-03, 1.00220582e-02, 7.17428513e-04,
       -2.88308803e-02, -1.02312472e-02, 3.02071590e-03, 6.54080557e-03,
       5.03609143e-03, -2.20113248e-02, -1.77224018e-02, 1.55896693e-02,
       2.22024545e-02, 1.56857669e-02, -7.26392400e-03, 3.96609399e-03,
       -8.06975272e-03, -3.33642401e-03, -4.39023413e-02,
       -7.04444945e-03, -1.39364728e-03, 5.11169387e-03, 7.53853994e-04,
       -1.76648386e-02, -5.07941749e-03, 4.89516230e-03, -8.86738393e-03,
       -2.33566891e-02, 7.92543124e-03, 1.15234200e-02, 2.17590411e-03,
       -2.95529477e-02, -1.14489570e-02, 4.84900502e-03, -9.48689971e-03,
       -1.74203282e-03, -1.37422749e-05, 2.70083989e-03, -1.21841235e-02,
       -2.80816387e-03, -3.36809456e-02, -1.13389352e-02, 6.26737485e-03,
       6.53015962e-03, -3.52228759e-03, -2.43623219e-02, -2.08237041e-02,
       5.43157244e-03, 1.75006166e-02, -5.07870968e-03, -2.45265737e-02,
       1.04103135e-02, -6.92453841e-03, -1.25934475e-03, -1.36053516e-02,
       -2.76006237e-02, -1.87409390e-02, 5.92606096e-03, -1.70496330e-02,
       2.60623568e-03, 6.21915516e-03, -1.10187586e-02, -6.05961867e-03,
       3.79348011e-03, 4.05011792e-03, 2.03567371e-03, 1.29990811e-02,
       -1.15727093e-02, -1.84304570e-03, 1.17158610e-03, -6.66940166e-03,
       -1.41017530e-02, -1.90062597e-02, -3.64902499e-03,
       -3.91885266e-03, 2.21966836e-03, -8.34353641e-03, -1.01784496e-02,
       1.69748941e-03, -1.64415743e-02, -6.49320101e-03, 9.44811385e-03,
       -7.23713078e-03, 1.75646704e-03, 2.53061224e-02, 3.73237155e-04,
       -1.20125702e-02, -7.04822503e-03, -1.87564380e-02,
       -1.43244825e-02, -2.31006853e-02, -4.96439124e-03,
       -2.62949406e-03, 2.05633305e-02, -3.44056031e-03, 3.80994915e-03,
       1.03133684e-02, 1.22372136e-02, 1.08223129e-02, -2.02655839e-03,
       -1.39303254e-02, -7.53190788e-03, 2.47519603e-03, 7.05361180e-03,
       -1.02351094e-02, 8.12568411e-04, 1.11049442e-02, 8.46359134e-03,
       -2.20870525e-02, -2.24005263e-02, -2.87730973e-02,
       -1.49650406e-02, -1.13167549e-02, 7.29162525e-03, 1.18999192e-02,
       3.05466820e-03, 1.41376525e-03, -1.33171072e-02, -8.58279224e-03,
       1.06625389e-02, 1.83270015e-02, 1.33556721e-03, 1.42344076e-03,
       4.52033058e-03, -1.39475977e-02, -1.14217075e-02, -1.99076291e-02,
       -8.67901463e-03, -9.70657263e-03, 3.29820742e-03, -1.36020212e-02,
       -1.88954442e-03, 3.41368839e-03, 7.60865677e-03, -8.21552239e-04,
       -1.35910315e-02, -9.79100820e-03, -1.09182969e-02, 1.90787588e-03,
       -4.35595214e-03, -5.28463337e-04, -4.44765715e-03,
       -1.07456967e-02, -2.22591385e-02, -5.13018155e-03,
       -1.94254722e-02, -1.63329728e-02, -7.91936088e-03, 1.57586404e-03,
       6.86344551e-03, 2.01808941e-02, 6.80741249e-03, -9.93638113e-03,
       -8.34475178e-03, 7.66180502e-03, -1.68525975e-03, 1.82288717e-02,
       3.42589593e-03, -6.51642215e-03, 8.14074092e-03, -1.16303451e-02,
       -2.73553096e-02, 1.76499278e-04, 1.00188125e-02, 5.76908002e-03,
       2.60920334e-03, 6.76586246e-03, 4.99607529e-03, -2.23056832e-03,
       -6.10814313e-04, -2.06457134e-02, -1.27847837e-02,
       -7.07431138e-03, -9.42972023e-03, 2.58016144e-03, 6.68593741e-04,
       -1.08871190e-02, -3.99316801e-03, 7.56787369e-03, -2.13061664e-02,
       -2.09953692e-02, -7.84561213e-04, 4.18419810e-03, 1.15083577e-02,
       -2.10719882e-03, 9.10292566e-03, 1.31415492e-02, -2.29922379e-03,
       -2.26372946e-02, -8.96361656e-03, 1.35696344e-02, 1.16536859e-02,
       -3.02091427e-03, 3.79226776e-03, 9.25533939e-03, 1.11698825e-02,
       3.38955713e-03, -6.28449116e-03, -2.23795660e-02, 9.34608839e-03,
       4.05252818e-03, 6.24244194e-03, 3.56295682e-03, -1.28978668e-02,
       1.73285492e-02, 1.98319834e-02, 1.28348963e-02, 4.82952176e-03,
       3.02687730e-03, 3.74899292e-03, 2.19958648e-03, -1.40579063e-02,
       -8.14652815e-03, 7.51733640e-03, -9.47082532e-04, -9.95288137e-03,
       -1.81964450e-02, -2.70286407e-02, -2.78166030e-02, 2.56085931e-03,
       -4.13298048e-03, 1.42281852e-03, 2.89183352e-02, 9.94221028e-03,
       -4.14062478e-03, 2.83938041e-03, 1.38752311e-02, 3.31418449e-03,
       1.36387916e-02, -1.95821580e-02, -3.65617732e-03, 4.72694170e-03,
       -8.11874866e-03, -2.30389237e-02, -2.02380978e-02,
       -6.60741189e-03, -5.81318466e-03, 1.92880388e-02, -8.09762720e-03,
       9.20906290e-03, 1.47446925e-02, 4.69289301e-03, -1.29179116e-02,
       -8.34323466e-03, -1.54087069e-02, -1.51565364e-02, 2.35023396e-03,
       3.97754274e-03, -2.56888568e-03, 1.05273537e-02, 1.29636528e-03,
       -1.94638465e-02, -1.54585177e-02, -1.64008513e-02,
       -9.81887337e-03, -5.21501899e-03, -5.94068458e-03, 1.13249300e-02,
       1.08074304e-02, 4.60481131e-03, -1.10115055e-02, -3.74896848e-03,
       -1.12598040e-03, 9.10979323e-03, 1.58585105e-02, 2.98855291e-03,
       1.66151263e-02, 1.06463423e-02, -9.18934401e-03, -1.20939668e-02,
       -3.33149848e-03, -7.40604335e-03, -5.83328446e-03, 6.39844267e-03,
       4.82435199e-03, -6.98125642e-03, 1.68957524e-02, 1.31698726e-02,
       2.78695999e-03, 1.77448511e-03, -6.62412820e-03, 4.22233995e-03,
       3.52665922e-03, -1.05121313e-02, -2.14024838e-02, 1.11707579e-02,
       -2.22603296e-04, -8.14093556e-03, -1.92410368e-02,
       -1.90059412e-02, -1.58233326e-02, -1.88290272e-02,
       -2.20369268e-02, 1.32889375e-02, 2.43888069e-02, 6.66347891e-03,
       1.69696622e-02, 2.49465331e-02, 1.10288300e-02, 1.37877557e-02,
       2.17588898e-02, 7.59590650e-03, 3.04534566e-03, 4.07433230e-03,
       -2.98251375e-03, -6.29826356e-03, -5.84413996e-03,
       -5.95950428e-03, -6.16759667e-03, -2.87762540e-03,
       -1.38212442e-02, -1.32407807e-02, 3.20685585e-03, -1.61784925e-02,
       -1.22602116e-02, -1.05788745e-02, -2.74361996e-03,
       -1.88816898e-02, -1.45712607e-02, -1.58463605e-02,
       -4.10101097e-03, -4.90779616e-03, -1.02303652e-02, 1.20961647e-02,
       4.43787593e-03, 1.60608869e-02, -1.37659172e-02, -1.81394722e-02,
       -1.23416390e-02, 5.02235210e-03, 5.79702714e-03, -1.18017830e-02,
       -1.71733219e-02, -4.99880314e-03, 1.78237562e-03, -1.76166918e-03,
       1.01553071e-02, -3.56217101e-03, 6.32817450e-04, 7.66260363e-03,
       5.75840939e-03, 2.33639497e-02, 1.42750293e-02, 1.42536033e-02,
       -6.33783126e-03, 7.83769879e-03, -1.23419100e-02, 1.09168468e-02,
       1.10382563e-03, -6.14853576e-03, 1.37007888e-03, -5.36525482e-03,
       -6.83807593e-04, -1.11700464e-02, -1.12213483e-02, 7.20796408e-04,
       1.88618917e-02, -4.02603392e-03, -8.38235766e-03, 6.04089117e-03,
       -3.70365544e-03, -7.93778617e-03, -6.10208325e-03, 1.47584127e-02,
       1.61824692e-02, -5.29171666e-03, 1.34185413e-02, 1.26650194e-02,
       2.04111659e-03, -8.05421453e-03, -1.16142258e-02, -1.21870572e-02,
       -4.44555655e-03, -1.07559245e-02, 1.10532111e-02, 1.04434416e-02,
       9.21893213e-03, 6.98238378e-03, -2.00131666e-02, 2.26240634e-04,
       1.82745559e-03, 1.34440027e-02, 2.07123253e-02, -3.52091593e-04,
       -5.34005754e-04, -1.48830209e-02, -4.67968266e-03,
       -7.55715743e-03, -5.73923206e-03, 1.16693433e-02, 2.56998930e-02,
       5.39947255e-03, -1.77517359e-03, 9.85214114e-03, -1.72211584e-02,
       -3.63096446e-02, -4.93335463e-02, -1.29590714e-02, 1.54134706e-02,
       2.94690430e-02, 3.62953241e-03, -2.73118191e-03, 1.42596588e-02,
       1.16071980e-02, 8.16110056e-03, -2.19371729e-02, -3.56664474e-04,
       5.79300104e-04, 1.36012612e-02, 8.12097546e-03, 6.22485951e-03,
       1.86431054e-02, -6.88182539e-04, -7.66021083e-04, -2.50095893e-02,
       4.17453062e-04, -8.28018039e-03, 1.47100920e-02, 7.09841633e-03,
       1.12401582e-02, 1.01984479e-02, -1.71151459e-02, 9.12394654e-03,
       -9.62221529e-03, 5.45230880e-03, 7.67677836e-03, 5.28602581e-03,
       -8.58164951e-03, 3.70628759e-03, 1.99777484e-02, -3.04805953e-03,
       1.58317126e-02, 3.60318972e-03, 4.83082049e-03, 2.01069806e-02,
       2.34335531e-02, 9.86677594e-04, 4.79604164e-03, -2.21012463e-03,
       -1.88928694e-02, 9.68268869e-05, -2.41590533e-02, 1.75819872e-03,
       -2.30575330e-03, 1.84593964e-02, 8.48645403e-04, 1.60848419e-03,
       1.86535940e-02, -7.87174795e-03, 1.85566880e-02, 1.49675499e-04,
       -5.36267599e-03, 6.98720291e-03, 1.90699268e-02, -3.30442470e-03,
       -8.12489074e-04, 1.65060144e-02, 8.25077575e-03, 6.68655150e-03,
       -1.59974582e-02, 6.54526940e-03, 1.00476826e-02, 8.37589428e-03,
       -1.58752629e-03, -3.37756285e-03, 1.42631214e-02, -1.87244627e-03,
       -4.71422868e-03, -2.03188024e-02, 2.71079247e-03, 1.20232133e-02,
       8.70767049e-03, -3.70544731e-03, -6.71128463e-03, 2.02245321e-02,
       5.15411282e-03, 1.80468448e-02, -5.93472086e-03, -2.29076110e-03,
       1.23019731e-02, 5.71746984e-03, -1.01360874e-02, -2.30203965e-03,
       3.08913682e-02, 8.81412718e-03, -3.92779475e-03, -1.49434283e-02,
       -1.26599614e-03, 1.20237805e-02, 2.10826285e-02, -1.01923523e-03,
       -1.88110024e-02, -1.04380082e-02, -1.42956106e-02,
       -4.51436406e-03, -1.95785798e-02, 2.37073121e-03, 1.35962442e-02,
       1.00641884e-02, -8.77877325e-03, -4.31615151e-02, -2.37332918e-02,
       -2.01391894e-03, 3.06809437e-03, -4.34700865e-03, -2.24146452e-02,
       8.95793084e-03, 1.65072661e-02, -9.19820648e-03, -1.02272555e-02,
       4.88528190e-03, -3.94457625e-03, 1.98463211e-03, -1.63854361e-02,
       2.37232354e-03, 4.11683973e-03, 3.09021529e-02, -1.36655092e-03,
       -1.39632458e-02, 7.93706626e-03, 6.99144509e-03, 2.35901009e-02,
       5.62135689e-03, -3.41709470e-03, 2.12590996e-04, 2.33128704e-02,
       -1.00559322e-02, -2.01669428e-02, -8.32184311e-03,
       -6.94504660e-03, -1.02412850e-02, -4.15289775e-03,
       -7.11538782e-03, 1.94605663e-02, 2.23390739e-02, 1.14995958e-02,
       -7.21369311e-03, -5.96663635e-03, -1.78221874e-02,
       -8.17874633e-03, -3.84928919e-02, -1.35223325e-02, 8.60788301e-03,
       1.59855876e-02, 1.20157069e-02, -7.10082985e-03, -4.38610511e-03,
       -8.81676096e-03, 1.32936088e-03, 1.16749236e-03, 8.49533081e-03,
       1.48238316e-02, 1.39379352e-02, 6.47050212e-04, -2.39028353e-02,
       -9.16085579e-03, -1.40683167e-02, -3.11488146e-03,
       -4.12351675e-02, 7.03061791e-03, 1.94901768e-02, 6.54248986e-03,
       -7.76295830e-03, -9.26803215e-04, 1.45465164e-02, -2.36341427e-03,
       -1.45308180e-02, -2.53096391e-02, -2.70939432e-02, 7.68251671e-03,
       2.01393571e-02, -1.22685824e-03, -1.93817411e-02, 7.21318927e-03,
       -3.83722596e-03, -1.66813824e-02, -1.91769172e-02,
       -3.05405892e-02, -6.31670142e-03, 4.63616150e-03, -1.29028540e-02,
       -5.21608302e-03, 1.83341745e-02, -5.76303666e-03, -1.16798282e-02,
       -2.11465806e-02, -1.98692922e-03, 8.37813318e-03, 7.34998845e-03,
       -1.76822208e-02, -7.94201903e-03, 9.16502159e-03, -1.92337465e-02,
       -2.69867312e-02, -1.01123108e-02, -2.92910170e-03,
       -5.55075984e-03, -2.50193779e-03, -7.20063644e-03,
       -1.28607489e-02, -2.93845148e-03, -9.30603594e-03,
       -1.00170840e-02, 1.51187088e-03, 1.19663775e-03, 1.34144425e-02,
       3.05837058e-02, -1.20172021e-03, -8.30172468e-03, -3.48362862e-03,
       -1.08124558e-02, 5.82434284e-03, -1.30849164e-02, 2.10569147e-03,
       -1.58755830e-03, 2.45402828e-02, -4.40212991e-03, -5.53642819e-03,
       -1.26532756e-03, -1.02524711e-02, -1.95990540e-02,
       -7.95384753e-04, 1.09998165e-02, 1.88847128e-02, 1.19121606e-02,
       1.35746449e-02, 4.78188321e-03, -6.19418221e-03, -9.55064595e-03,
       -8.32265592e-04, -1.61296353e-02, 1.17504131e-02, 1.18431123e-02,
       1.41275804e-02, 1.46126607e-02, 9.72692762e-03, 1.15831969e-02,
       6.40454050e-03, 5.63688669e-03, -7.13229645e-03, 2.22377339e-03,
       2.41179820e-02, 2.77222842e-02, -3.66483605e-03, -1.12434532e-02,
       -1.19042359e-02, -1.58048980e-02, -1.88784152e-02,
       -1.20900311e-02, -1.00783736e-03, 1.27862720e-02, 1.62047185e-02,
       -2.27830242e-02, 2.07357667e-02, 9.26750526e-03, 1.32484920e-03,
       -2.55202968e-03, 8.60966556e-03, 5.68456668e-03, 3.11463308e-02,
       1.54986437e-02, 5.50466171e-03, -1.75332408e-02, -3.73910577e-03,
       -2.15672590e-02, -3.19552720e-02, -2.35263095e-03, 1.71535220e-02,
       2.49391962e-02, -4.66211420e-03, -3.56737599e-02, -4.22396604e-03,
       7.49324961e-03, -3.40491271e-04, -1.42642893e-02, 1.93215511e-03,
       2.32047588e-02, 8.47193133e-03, 9.75955091e-03, -1.26595264e-02,
       -2.03620866e-02, 4.19494649e-03, -6.63658557e-03, -1.99064109e-02,
       -6.51553553e-03, 1.28279161e-02, -1.56312433e-06, -4.28318977e-03,
       -7.98927713e-03, -1.24376277e-02, -1.95432361e-03,
       -2.55090576e-02, -2.22492777e-02, 1.25099523e-02, 2.80732047e-02,
       3.03719994e-02, 1.33766076e-02, -1.63072832e-02, -2.17407960e-02,
       -1.83599479e-02, -3.52574289e-02, -2.23589968e-02, 3.86425923e-03,
       2.30088294e-03, 1.37632452e-02, 2.00929139e-02, 4.47277678e-03,
       -2.90597114e-03, 1.00110983e-02, -2.60650530e-03, -1.94536243e-02,
       -1.41675351e-02, 1.60871781e-02, 2.06017178e-02, -1.82414067e-03,
       3.20017949e-04, 7.94835668e-03, 1.11982645e-02, -7.63714267e-03,
       -1.03425030e-02, -1.68288052e-02, 1.18071251e-02, 6.32563652e-03,
       -8.67199246e-03, -6.25538174e-03, -1.33763915e-02,
       -6.32582651e-03, -1.44953877e-02, -1.16130859e-02,
       -5.33260172e-03, 1.63020361e-02, 2.37750374e-02, 1.87342763e-02,
       7.73779303e-03, -1.07842088e-02, 7.36300787e-03, -7.90677499e-03,
       -8.76941346e-03, -1.37173571e-02, 9.05158115e-04, 6.92535751e-03,
       8.18411168e-03, -8.82844441e-03, 3.65325506e-03, 1.80655289e-02,
       -3.65441811e-04, -1.18071735e-02, -5.64569957e-04, 1.54735297e-02,
       7.90846348e-03, -7.26918573e-04, -2.07321867e-02, 6.59040990e-04,
       3.18675209e-03, -3.73804965e-03, -1.60376225e-02, -1.15085058e-02,
       6.25735614e-03, -6.88562589e-03, 5.91126923e-03, -6.07109489e-03,
       -1.49141774e-02, 1.33273695e-02, 7.43177813e-03, -4.55168105e-04,
       -8.23742338e-03, -2.34999554e-03, 1.81598980e-02, 5.54909976e-03,
       -1.68351829e-02, -7.79619766e-03, 3.14742734e-04, -3.33287171e-03,
       -4.08556638e-03, -1.11348582e-02, 1.04558682e-02, 5.99435624e-03,
       1.86695922e-02, 5.88858034e-03, 1.46288285e-02, 8.34831595e-03,
       2.15112255e-03, -5.51284803e-03, 3.25233355e-04, 8.04123841e-03,
       -2.16659927e-03, 1.39834508e-02, 7.67360441e-03, 2.24853642e-02,
       9.42420401e-03, -6.87879417e-03, -3.99147114e-03, -2.23118346e-02,
       -1.12732882e-02, -1.64179597e-02, -3.35992617e-03, 2.32738163e-03,
       1.50911557e-02, 8.11114907e-03, 3.69515945e-03, -6.77755801e-03,
       -1.63108315e-02, 7.72641832e-03, 1.65378186e-03, 2.45342404e-02,
       1.59533359e-02, 3.10909282e-02, 6.85988506e-03, -1.01132160e-02,
       -8.76510050e-03, -2.74606477e-02, 5.91110997e-03, -1.97704267e-02,
       9.01814364e-03, -3.20512289e-03, 1.25182169e-02, 1.49483737e-02,
       -2.22217845e-04, 8.22196063e-03, 7.67404772e-03, -9.14548431e-03,
       -4.78374353e-03, 1.42054679e-02, 7.74617773e-04, -8.26813467e-03,
       -8.46851896e-03, -1.30616045e-02, -1.16906492e-02,
       -2.62790881e-02, -2.05494389e-02, -7.42129562e-03, 8.56182072e-03,
       -5.41312760e-03, 2.79454030e-02, 1.57456137e-02, 3.14718182e-03,
       7.45094288e-03, -2.72448966e-03, -4.45711473e-03, -3.66898370e-03,
       2.44332924e-02, 1.24993902e-02, 1.32863224e-02, -2.51845992e-03,
       -1.28472541e-02, 7.65972829e-04, -2.07173862e-02, -2.81773247e-02,
       -5.91048086e-03, 2.92908624e-02, 1.34537220e-02, -1.00649716e-02,
       4.28901199e-04, -1.16947014e-02, -1.39514366e-02, -1.48818530e-02,
       -8.90304614e-03, -1.23070600e-03, 5.19037654e-04, -1.66423991e-02,
       -1.43338721e-02, 1.10984109e-02, 8.87638703e-03, 4.08300385e-03,
       -8.36960413e-03, -2.09729886e-03, -4.01930790e-03,
       -2.91004707e-03, -2.55923159e-02, 4.99923807e-03, 7.80391973e-03,
       -2.00075302e-02, -1.61312893e-02, -2.91944435e-03,
       -1.62460692e-02, 3.08780000e-03, 1.35779334e-02, 3.82667035e-03,
       -7.83934351e-03, 6.17122883e-03, -5.68676973e-03, -2.37456840e-02,
       -5.11423638e-03, -4.35686298e-03, -2.72787828e-03,
       -6.65672543e-03, -1.28612341e-02, -1.11120353e-02, 1.95565261e-02,
       1.97149571e-02, -7.93984905e-03, -1.58641022e-02, -5.94664784e-03,
       -4.65094810e-03, -5.42993192e-03, -1.68430097e-02, 5.89907961e-03,
       1.46834515e-02, 1.59445852e-02, -2.87592015e-03, -2.23819409e-02,
       -3.97518557e-03, -8.71086959e-03, 8.96051526e-04, 6.71168137e-03,
       -1.16876177e-02, 1.56014338e-02, 2.04083021e-03, -3.06175202e-02,
       -2.34095361e-02, -7.08303321e-03, -1.76510140e-02,
       -5.45083545e-03, -2.11135261e-02, -2.62823934e-03, 1.48547292e-02,
       7.55226240e-04, -7.09551899e-03, -1.10663753e-03, -3.52740800e-03,
       -2.70692036e-02, 6.61191624e-03, -3.68060847e-03, 4.62006358e-03,
       4.43510525e-03, 9.23330244e-03, 2.42170575e-03, -1.88982971e-02,
       -5.76155633e-03, -7.34310225e-03, -6.13631355e-03, 3.02570267e-03,
       8.39768071e-03, 1.81960000e-03, -5.58783393e-03, -3.17863072e-03,
       -1.04621965e-02, -1.50101492e-03, -2.04453655e-02,
       -4.40957164e-03, 3.94014968e-03, -3.43772513e-03, 2.19666585e-03,
       3.69237084e-03, -2.00226277e-04, -1.09258620e-02, -2.33969186e-02,
       -2.04815697e-02, 2.35872954e-04, -1.21215021e-03, -2.94319983e-03,
       2.10546743e-04, -1.41616806e-03, -1.78903213e-03, -1.35339918e-02,
       -9.40568838e-03, -2.36721728e-02, 1.70267455e-03, 1.18329329e-03,
       -3.63814901e-03, 2.52321339e-03, -3.61919403e-03, -8.41191784e-03,
       -2.89954059e-02, 1.23725762e-03, 5.66614233e-03, 1.91391837e-02,
       2.43747979e-03, -1.13923512e-02, 1.22205131e-02, 9.53780673e-03,
       5.45210810e-03, 7.62592442e-03, 2.51188595e-03, 9.99095850e-03,
       1.03392443e-02, -1.59176383e-02, -4.95827058e-03, 1.41731985e-02,
       -7.64505100e-03, -2.52698851e-03, -2.49020359e-03,
       -9.04136512e-04, 1.78830046e-02, 3.00245229e-02, 1.54872378e-02,
       -2.54654661e-02, 1.90422032e-02, 1.12631256e-02, 5.12243528e-03,
       1.11618331e-02, -9.25997738e-03, -1.00731544e-04, 1.45203071e-02,
       -3.60798702e-04, -1.01152034e-02, 6.52837940e-03, 6.49755774e-03,
       3.56681389e-03, -5.58236055e-03, 9.53397714e-03, 2.59673912e-02,
       1.43274097e-02, -7.27928383e-03, 1.37449335e-03, 1.63357593e-02,
       6.96611765e-04, -1.85625406e-03, -6.29405491e-03, -1.37871467e-02,
       6.64758336e-05, 1.42031144e-02, -8.39361269e-03, -1.07005946e-02,
       1.46737928e-02, 1.24159968e-02, 3.24203726e-03, 1.44361635e-03,
       -5.50760888e-03, 3.39414342e-03, 1.38929635e-02, -6.02009473e-03,
       -3.50523670e-03, 1.19590107e-02, -6.60857942e-04, 9.90999956e-03,
       1.15880114e-03, -2.15827916e-02, -1.28544271e-02, 8.80734064e-03,
       -2.40971930e-02, 1.14833778e-02, 5.74031007e-03, -2.92471959e-03,
       -2.25551496e-03, -1.29333651e-02, -1.16603458e-02,
       -1.17235221e-02, 2.16445383e-02, -1.03199692e-03, 5.45826508e-03,
       8.27380735e-03, 3.48760933e-03, 4.25166450e-03, 1.35165034e-02,
       1.37317728e-03, -1.63857657e-02, 6.95244502e-03, -4.35808906e-03,
       -4.83138394e-03, 1.56461122e-03, -7.39652989e-03, -1.54956523e-02,
       -1.49235325e-02, -4.55747079e-03, -1.54977571e-02, 3.60745075e-03,
       -1.86267570e-02, 7.78697524e-03, -4.72782739e-03, -2.60460805e-02,
       -1.86299291e-02, -2.47557182e-02, 1.91174983e-03, -2.34885253e-02,
       -8.02154094e-03, -3.35649145e-03, -1.30128087e-02,
       -5.06500434e-03, -2.10613967e-03, -1.17807498e-03,
       -9.29539930e-03, 9.77178453e-04, -5.40449098e-03, 1.40577601e-03,
       -6.70311600e-03, -2.69838497e-02, -1.87683967e-03, 7.69208127e-04,
       -2.85769720e-03, -2.84512769e-02, 1.90133194e-03, 1.27009843e-02,
       1.29675176e-02, -1.81224421e-02, -2.20180079e-02, -1.11493412e-02,
       -4.76621836e-03, -1.01450402e-02, -1.28650116e-02,
       -2.38336041e-03, -1.64460149e-02, -1.42587973e-02,
       -1.19920466e-02, -2.20938027e-02, -1.22396776e-03, 2.16202531e-03,
       -2.18754774e-03, -2.43957508e-02, 8.40133708e-03, -7.24661769e-03,
       1.00751258e-02, -1.43063609e-02, -3.68688605e-03, 6.09565713e-03,
       -1.18969949e-02, -2.28745025e-02, -1.47204264e-03, 6.53391657e-03,
       7.22491881e-03, 5.26893511e-03, -1.95890926e-02, 3.81469191e-03,
       3.15840705e-03, -3.34008187e-02, -3.26150097e-02, 5.61996410e-03,
       -3.71592748e-03, -1.06182424e-02, -8.30495358e-03,
       -1.34309279e-02, -4.48876619e-03, -2.43034237e-03,
       -3.05386260e-02, -1.86180230e-02, 7.06640026e-03, 9.10305046e-03,
       4.37394483e-03, 2.35702805e-02, -8.89830850e-03, -1.08640399e-02,
       -7.34522520e-03, -4.15734090e-02, -1.66727565e-02, 3.64642637e-03,
       -2.20800447e-03, -9.88730881e-03, -3.60047142e-03,
       -1.83134675e-02, 1.34752179e-02, 8.35094950e-04, -1.95340663e-02,
       -2.56666541e-02, 1.43186050e-03, 1.51205156e-02, 1.70452520e-02,
       1.39285233e-02, 1.15904873e-02, 4.77647595e-03, -1.38917761e-02,
       -1.84033401e-02, -3.17876786e-02, -9.53336991e-03, 1.36529990e-02,
       1.26298498e-02, 5.17609715e-03, 1.06399227e-02, 1.04122348e-02,
       2.19936371e-02, -1.89995673e-03, -3.38367233e-03, 7.42056407e-04,
       3.90307489e-03, 2.85449158e-03, 7.27290660e-03, 1.75770232e-03,
       1.36406226e-02, 1.21685360e-02, -8.30061082e-03, -1.44602321e-02,
       -1.12408753e-02, -1.01354653e-02, 1.66636644e-04, 2.62576184e-04,
       7.70890759e-03, 1.13086728e-02, -5.95155347e-04, -8.10913648e-03,
       -1.51576530e-02, 4.09535132e-03, 8.20685271e-03, 3.46094035e-02,
       1.13140289e-02, 6.11404190e-03, -1.59826502e-02, -6.88677374e-03,
       -3.20452452e-02, -3.11138779e-02, -1.75149497e-02,
       -2.95847584e-03, 2.66063632e-03, -1.12006590e-02, -2.62957364e-02,
       1.68131683e-02, 1.15813185e-02, -1.20947240e-02, -7.35119823e-03,
       -1.04804281e-02, -6.53796224e-03, 1.98802222e-02, 2.77108308e-02,
       2.14921888e-02, -7.52924662e-03, -8.35666340e-03, -2.68980768e-02,
       -1.31273968e-02, -3.65286283e-02, -1.80653427e-02,
       -5.19187329e-03, -1.20075082e-03, 6.28644880e-03, -4.62585827e-03,
       -2.88210786e-03, -2.56497581e-02, -2.72458121e-02,
       -7.90721364e-03, 1.83386682e-03, 2.27217954e-02, 2.27068420e-02,
       -3.62535520e-03, -1.47631885e-02, -1.22666173e-02,
       -4.07197885e-02, -3.53829488e-02, 3.64543800e-03, -1.21536674e-02,
       1.68195106e-02, 3.27513777e-02, -7.19711243e-05, 1.71061768e-03,
       4.11696406e-03, -1.15855215e-02, -2.47183489e-03, -1.83099657e-02,
       -5.35854278e-03, 1.52840205e-02, 2.05477066e-02, 1.32182781e-02,
       -1.33719994e-02, -3.51123349e-03, -2.45960299e-02,
       -2.28389073e-02, 3.32332961e-03, -5.34163974e-03, 3.57724051e-03,
       2.95539591e-02, 4.26590967e-04, -3.20016150e-03, -6.31275028e-03,
       -2.04612482e-02, -1.69415232e-02, 3.71752726e-03, 3.70916701e-03,
       1.29870949e-02, 2.19103098e-02, 4.75571817e-03, -2.17365916e-04,
       1.40431719e-02, -9.55396611e-03, -1.15190158e-02, -1.13896187e-02,
       -1.47310561e-02, -4.30295896e-03, 1.36296516e-02, 5.27721969e-03,
       -3.43292812e-03, 6.22887723e-03, -1.34788519e-02, -6.80168206e-03,
       1.42777599e-02, 9.48754372e-04, 9.55280673e-04, 1.56241339e-02,
       -1.65402784e-03, -8.35807342e-03, 1.28843794e-02, -2.12563761e-02,
       -1.58926174e-02, -1.80277731e-02, -9.23585799e-03,
       -8.18162598e-03, 6.30867248e-03, 7.84659665e-03, -5.16341813e-03,
       1.79867744e-02, 1.29305688e-03, -1.56087975e-03, -1.48025695e-02,
       -8.67891498e-03, 1.09421024e-02, 1.41920736e-02, 3.65288020e-03,
       -1.36599469e-03, 6.06987206e-03, -8.19184538e-03, -5.25995670e-03,
       -2.01117992e-03, 1.13848541e-02, 1.68977845e-02, 2.38830429e-02,
       6.16073515e-03, -6.12663385e-03, 4.04921407e-03, -1.11674238e-02,
       -1.38122849e-02, -2.42697615e-02, -1.02919573e-02, 3.53380316e-03,
       2.10983530e-02, 6.18433859e-03, -2.84098298e-03, -2.10777973e-03,
       -1.64896250e-02, -9.70461871e-03, -2.52230861e-03, 2.06763530e-03,
       1.19068809e-02, 1.60354283e-02, 2.29662284e-03, 1.98678230e-03,
       -1.87871789e-04, -4.15626401e-03, -4.11928119e-03,
       -7.56531721e-03, 1.43529242e-02, 8.51890258e-03, 2.46029794e-02,
       9.95456241e-03, 9.73310694e-03, 1.25198986e-03, -1.08427703e-02,
       -7.84986932e-03, -2.39331536e-02, 1.23937028e-02, -1.80010162e-02,
       8.03141762e-03, -9.79570951e-03, 2.47833738e-03, 1.20014884e-02,
       -6.76722405e-03, 1.72829907e-03, -4.51879110e-03, 6.79924246e-03,
       -2.61630421e-03, 2.23060325e-03, 4.95857373e-03, 1.90554609e-04,
       1.33595485e-02, -1.61869626e-03, -5.84527990e-03, -2.66040694e-02,
       -3.00199812e-04, -2.40937807e-03, 9.37924907e-03, 1.65062735e-03,
       1.31362602e-02, 9.14657582e-03, 4.39234107e-04, 5.56433434e-03,
       -1.23397121e-02, 3.71889258e-03, -8.27056065e-04, 1.53056700e-02,
       -1.41195871e-03, 9.37782228e-03, 1.76543382e-03, -1.08458400e-02,
       -3.55386455e-03, -2.69741006e-02, -2.35134661e-02,
       -4.17943904e-03, 1.78840179e-02, -1.48753752e-03, 4.15313581e-04,
       1.57252885e-02, 8.99514125e-04, -8.37134197e-03, -5.36742341e-03,
       1.85040990e-03, 1.38807530e-02, 2.28118803e-02, 4.21067839e-03,
       3.84362647e-04, -2.85885017e-03, 1.40772830e-03, -7.92243425e-03,
       -1.49222044e-02, -2.53106691e-02, -4.48996434e-04, 1.67152621e-02,
       8.72453861e-03, 1.27355009e-02, -1.79595756e-03, -1.61584970e-02,
       -1.42670646e-02, -3.79824988e-03, -1.42398430e-02,
       -4.51706909e-03, 9.41981561e-03, 8.91235471e-03, -9.85003635e-03,
       -4.59437026e-03, -1.89780872e-02, -2.68662442e-02,
       -1.67255215e-02, 6.83481980e-04, -1.10396454e-02, -1.00482117e-04,
       3.48359550e-04, 7.28134857e-03, 1.28143618e-03, 9.59005486e-03,
       -1.74849920e-04, 1.78397435e-03, -1.28410729e-02, -9.77286417e-03,
       4.80539864e-03, 1.66216847e-02, 3.00043775e-03, -4.47878789e-04,
       -7.10751046e-04, -3.27284471e-03, -9.87286773e-03, 1.52404141e-03,
       -1.79874618e-02, 7.03388173e-03, 1.02010109e-02, -1.32474927e-02,
       1.33061339e-03, -1.25952698e-02, -3.41480076e-02, -1.95888374e-02,
       -2.85893283e-03, -8.35996028e-03, 5.26873488e-03, -1.56928226e-02,
       -1.62061322e-02, 3.38151562e-03, -1.40851492e-03, -7.49966130e-03,
       -3.82011174e-03, -1.34591917e-02, -9.65428539e-03, 8.29530973e-03,
       -4.54388885e-03, 2.71418784e-03, 1.08279558e-02, 4.23909863e-03,
       -1.91776939e-02, -2.14720797e-02, -1.43612903e-02,
       -1.03027942e-02, 1.54159255e-02, 9.22143087e-03, 8.77540838e-03,
       2.41229199e-02, 1.69091430e-02, 1.24405939e-02, -2.98469812e-02,
       -1.57780349e-02, 3.37816455e-04, 1.22113600e-02, 4.51145368e-03,
       -1.32077355e-02, -5.59931900e-03, 3.95755377e-03, -6.32325187e-04,
       -2.17296346e-03, -1.80343613e-02, -1.73622649e-02, 4.09047026e-03,
       -2.44568824e-03, -7.70678651e-03, -1.05111571e-02, 6.51203655e-03,
       -3.17391288e-03, -1.34006655e-02, -1.08930394e-02,
       -2.11604312e-02, 1.92023488e-03, 4.96659800e-03, 1.17910793e-02,
       5.88177331e-03, 3.33040324e-03, 1.08446702e-02, -3.40763368e-02,
       -2.08030790e-02, -6.98864972e-03, 6.42253133e-03, 8.79948121e-03,
       2.37239413e-02, -3.23421555e-04, 1.62694172e-03, -1.39121548e-03,
       -2.53842976e-02, -1.35536380e-02, 4.19958029e-03, 1.52352415e-02,
       2.78754514e-02, -2.07427051e-02, -1.27969282e-02, -3.13763581e-02,
       -7.75668450e-05, -4.90026176e-03, 1.22928992e-02, 4.49073454e-03,
       1.58974044e-02, -5.51140634e-03, -3.46535519e-02, -4.99991793e-03,
       -9.59980860e-03, 7.75079150e-03, 3.85425030e-03, -5.48500055e-03,
       -4.39719437e-03, 8.41066148e-03, -1.35652777e-02, 2.33195151e-05,
       -4.47017653e-03, -1.06648402e-02, 5.70483366e-03, 5.43158641e-03,
       9.21063684e-03, 9.29952040e-03, 1.92284249e-02, 4.14962182e-03,
       -1.29037667e-02, -3.70498886e-03, 5.27793251e-04, 1.45626999e-02,
       8.34004022e-03, 1.32736396e-02, 1.48737105e-02, 2.06214990e-02,
       -8.08051508e-03, -1.15970708e-02, 5.49572613e-03, 3.92284151e-03,
       3.72111495e-03, -5.58331236e-03, -7.83502497e-03, -6.57279603e-03,
       3.06612719e-03, -6.92230184e-03, 2.58041732e-03, 1.19014550e-02,
       1.12758791e-02, -9.38965287e-03, -1.45120574e-02, -3.22228074e-02,
       -2.87803654e-02, -9.08854883e-03, -5.43487072e-03, 1.63190789e-03,
       1.51454145e-02, 2.13644262e-02, 8.70632380e-03, -1.41049474e-02,
       1.33867478e-02, 9.13890544e-03, 1.17323548e-02, 4.30467352e-03,
       2.29729600e-02, 4.03623022e-02, 2.95448471e-02, -1.24778487e-02,
       -2.67607868e-02, -1.23061361e-02, -1.38454605e-02,
       -2.76814681e-03, 2.16742903e-02, -7.05371471e-03, -1.31422945e-03,
       -1.48271481e-02, -2.67797969e-02, -2.47242823e-02,
       -7.39309564e-03, -8.01680610e-03, -3.34188808e-03,
       -3.09264939e-03, 1.50598597e-03, -5.11678075e-03, -2.58224718e-02,
       -2.28149407e-02, -2.31944490e-02, -2.63625360e-03,
       -1.74014475e-02, -8.74936953e-03, -3.04583018e-03, 2.37551816e-02,
       3.62127684e-02, 9.88629274e-03, -2.07432434e-02, -1.54961245e-02,
       -1.58137288e-02, -6.13360945e-03, 1.11780530e-02, 2.93861162e-02,
       6.84196316e-03, 2.94981170e-02, -1.91573594e-02, -1.76047105e-02,
       -5.38919587e-03, -4.30526659e-02, -2.69468408e-02, 2.01737434e-02,
       3.32282740e-03, -1.32238418e-02, -1.10381376e-02, -1.55763151e-02,
       -1.07644787e-02, -4.02892800e-03, -7.03515485e-03,
       -2.51913909e-02, -1.02927852e-02, -1.11953020e-02,
       -1.18796667e-02, -1.39131332e-02, -1.87379532e-02,
       -5.73428907e-03, -1.77830309e-02, 2.29902493e-04, -2.69445628e-02,
       -6.17389055e-03, -9.74126346e-03, 9.48060863e-03, 1.93735417e-02,
       -3.41157336e-03, -1.69942286e-02, -1.09724104e-02,
       -2.09566783e-02, -2.17021536e-02, 6.51610456e-03, 4.76990500e-03,
       1.12453178e-02, 9.42922197e-03, -7.24612921e-03, -1.77133176e-03,
       -1.35211460e-02, -3.19948187e-03, -2.41444595e-02,
       -8.07079393e-03, -3.25782457e-03, -5.21550979e-03,
       -7.84814730e-03, -2.76422687e-02, -1.45482551e-02,
       -7.27455772e-04, -4.05534962e-03, -1.63106695e-02,
       -2.24182382e-03, -2.26076376e-02, -1.97582208e-02,
       -2.04501254e-03, -1.10779190e-02, -8.29167198e-03,
       -8.16064538e-04, -8.80752318e-03, -1.55543908e-02,
       -1.24446992e-02, -3.09637524e-02, -6.31180080e-03,
       -1.70568110e-05, -4.19689436e-03, -1.51308225e-02,
       -5.14863012e-03, -6.49092998e-03, -1.13102281e-02, 5.93053468e-04,
       -6.49083871e-03, -1.79994293e-02, -7.77982641e-04,
       -1.25998482e-02, -1.15040028e-02, -1.32121574e-02,
       -2.34827977e-02, -1.25364456e-02, -3.48876975e-03,
       -1.80510152e-02, -9.93107725e-03, 5.14971837e-03, 6.51612366e-03,
       -8.05148447e-04, 5.40986133e-04, -2.22623488e-03, -1.05683347e-02,
       -1.49404220e-02, -2.16274653e-02, -1.04809552e-02,
       -2.69278698e-03, -1.37189906e-02, -9.99476388e-03,
       -2.31123660e-02, -2.99491305e-02, -2.72433553e-02,
       -1.92931481e-02, -2.05923673e-02, 1.14111148e-03, 1.89726502e-02,
       9.78121255e-03, 6.78969454e-03, 8.06143880e-03, -1.03743197e-02,
       -9.68709216e-03, 1.04988590e-02, -2.97924527e-03, -3.67609924e-03,
       8.67183693e-03, -1.63454842e-02, -1.04628392e-02, -1.41300671e-02,
       -7.52541143e-03, -8.57725367e-03, 5.00217173e-03, 3.73848458e-03,
       4.89870226e-03, 2.82528764e-03, -1.24585303e-03, 1.18914647e-02,
       -8.07369687e-03, -1.59570971e-03, -1.55580451e-03, 2.03620605e-02,
       9.93189961e-03, -1.88959632e-02, -2.27434970e-02, -1.78758521e-02,
       -4.98619443e-03, -3.65005955e-02, -1.10595189e-02,
       -1.13063995e-02, -1.48494111e-03, -8.59834347e-03, 1.40624139e-02,
       2.08202638e-02, 9.53833573e-03, 1.31872017e-02, 7.18500139e-03,
       1.73391774e-02, 7.20269466e-03, 3.00536361e-02, 2.27812938e-02,
       -4.09871247e-03, 6.68798294e-03, -1.30938478e-02, -2.35963650e-02,
       -2.29485687e-02, -1.03808744e-02, -2.17813998e-02, 8.17875937e-03,
       1.33237697e-03, 1.46938185e-03, 1.15150108e-03, -1.25703297e-03,
       2.82957539e-04, -1.72397159e-02, 1.06532162e-03, 1.59561243e-02,
       9.81232990e-03, 9.73055977e-03, -1.45584140e-02, -1.95723004e-03,
       -2.46074740e-02, -3.04788630e-02, -1.76537167e-02,
       -1.05538908e-02, -1.38832759e-02, 1.18854605e-02, 6.59636734e-03,
       1.81623939e-02, 2.93113124e-02, 1.76784268e-03, -1.90629866e-02,
       -2.47085355e-02, -8.63872562e-03, 3.93072236e-03, 2.31853481e-02,
       3.19252387e-02, -8.97746813e-03, 5.63767098e-04, -2.92592254e-02,
       -2.46015005e-02, -3.20586041e-02, -1.59914587e-02,
       -1.38031589e-02, 1.70868039e-02, 2.25257725e-02, -2.12645102e-02,
       2.11450993e-03, -2.24406254e-02, -1.65472161e-02, -5.99522982e-03,
       3.51373223e-03, -6.05846243e-03, 1.06801465e-02, -1.78960108e-04,
       -2.76012067e-02, 4.76770289e-03, -2.21699644e-02, -1.27710868e-02,
       -8.34358297e-03, 3.32374894e-03, -2.72246101e-03, 5.57306595e-03,
       -2.25690636e-03, -1.14881461e-02, 4.61472664e-03, -2.58579161e-02,
       -4.50119516e-03, -1.55771812e-02, 3.05238925e-03, -1.91269163e-03,
       2.27061715e-02, 1.21356715e-02, -9.30815283e-03, 1.77419782e-02,
       -1.96558181e-02, -1.46854680e-03, -8.21629632e-03,
       -2.31164019e-03, -2.91478727e-03, 3.52813341e-02, 1.71902943e-02,
       -2.45297141e-02, -8.30589049e-03, -1.38459671e-02,
       -1.73846725e-02, -3.37390341e-02, -5.76000055e-03,
       -4.76900197e-04, 6.84171868e-03, -1.02686537e-02, -1.40376817e-02,
       -5.79093024e-03, -4.86898096e-03, -1.92965940e-02,
       -1.68219581e-02, 1.50972581e-03, -3.08854179e-03, 8.18058569e-03,
       -1.12609537e-02, 7.38503179e-04, 1.62209552e-02, 5.02559124e-03,
       -1.80679606e-03, -2.08456274e-02, 8.82391725e-03, 4.98079346e-04,
       2.81032324e-02, 9.78783332e-03, 1.22248316e-02, 1.48389433e-02,
       1.05137667e-02, -3.52524105e-03, -2.04810817e-02, 1.67973991e-02,
       -6.40199985e-04, 2.64825840e-02, -2.83964095e-04, -1.02212233e-02,
       9.02346428e-03, 5.41880075e-03, -1.95861235e-03, -1.00621739e-02,
       7.16901198e-03, -5.70444332e-04, 1.28733655e-02, -1.68520561e-03,
       -1.24880718e-02, 6.37180405e-03, 4.78923088e-03, -9.36515443e-03,
       -4.60437424e-02, -1.36529878e-02, -6.03981502e-03, 1.17439870e-02,
       -1.53443223e-04, 5.03267534e-03, 1.48545997e-02, 7.76482839e-03,
       -1.36647746e-02, -2.49020196e-02, 1.11724706e-02, 1.11835338e-02,
       4.33693416e-02, 9.18987766e-03, 8.68816860e-04, 1.13688530e-02,
       -9.51338559e-03, -2.02934761e-02, -5.80696277e-02,
       -1.45520689e-02, -4.90609743e-03, 4.43863682e-02, 2.12613288e-02,
       -1.31111518e-02, 1.09102065e-02, 6.19220501e-03, -4.99875890e-03,
       -2.07919609e-02, 8.75239202e-04, 9.60290153e-03, 1.28160249e-02,
       2.87624262e-03, -2.17868891e-02, -1.07397418e-02, -1.68082118e-03,
       1.74341723e-03, -8.95369053e-03, -2.07335930e-02, -3.31159611e-03,
       7.68433372e-03, -2.46771378e-03, 5.38476603e-03, 1.02645457e-02,
       6.01668563e-03, 1.69181370e-03, -2.08478309e-02, -8.02342221e-03,
       4.69656847e-03, 3.44790034e-02, 2.12987065e-02, -1.25927646e-02,
       2.26420723e-03, 2.79472233e-03, 8.48336332e-03, -3.99347674e-03,
       3.42994882e-03, 6.82034437e-03, 2.52571497e-02, 3.99955641e-03,
       -1.98078491e-02, -5.54144010e-03, -5.13874972e-03, 4.28277347e-03,
       -1.52484830e-02, -6.31691050e-03, -3.40419845e-03, 5.98763488e-03,
       -5.06361248e-03, -9.36366897e-03, 4.63801349e-04, -2.46553589e-03,
       1.26931735e-03, -1.83442626e-02, -1.14153989e-03, -1.37615409e-02,
       6.80085365e-03, 5.90151222e-03, -6.32076431e-03, 1.09910397e-02,
       4.99663688e-03, 1.86398276e-03, -8.58752150e-03, 7.29713729e-03,
       7.83094019e-03, 2.18129549e-02, 4.74511785e-03, 8.06106906e-03,
       1.79592483e-02, -3.00984341e-03, -2.88529292e-04, -1.89292189e-02,
       3.53563286e-04, -3.80270090e-03, 1.96324252e-02, 1.85993854e-02,
       -1.31640295e-02, 3.72611661e-03, -7.53428927e-03, -1.32796792e-02,
       -2.71192584e-02, -1.16338106e-02, -5.10531245e-03,
       -8.53750826e-05, 5.89177129e-04, -6.11972949e-03, -1.96802942e-03,
       -7.08307233e-03, -1.36152224e-03, -3.49377245e-02,
       -1.66000873e-02, -9.91902966e-03, -6.77746430e-04,
       -4.78856855e-05, -1.18754082e-03, 1.81012042e-02, -2.20551947e-03,
       -1.14380883e-03, -2.24436149e-02, 1.85197254e-03, -6.82410668e-04,
       1.77292824e-02, 1.70109589e-02, 1.38706956e-02, 1.09465877e-02,
       -5.37952757e-04, -3.69594526e-03, -2.40355842e-02, 6.24640100e-03,
       -8.73140991e-04, 3.04293092e-02, 3.76199596e-02, 7.34333880e-03,
       -3.28857754e-03, -1.03703756e-02, 7.75784021e-04, -2.20132507e-02,
       -2.42536347e-02, -9.06332396e-03, 4.97654639e-03, 1.36831254e-02,
       1.46690281e-02, -3.38542333e-04, -1.61061902e-02, -1.44872600e-02,
       -2.43568886e-02, -2.85567343e-02, -6.90899836e-03, 5.40450495e-03,
       2.10293569e-02, 2.86489762e-02, 2.06977520e-02, 2.66838260e-03,
       -7.65525270e-04, -2.44175969e-03, -2.01198682e-02,
       -1.08480714e-02, 1.75573044e-02, 3.92185375e-02, 3.51164751e-02,
       1.36249140e-02, -1.91940889e-02, -2.17196625e-02, -1.63524598e-02,
       -3.02209780e-02, -6.81899348e-03, 1.85029733e-03, 3.36541235e-02,
       1.43362343e+00 ]
