%YAML:1.0
---
my_detector_11h24: !!opencv-object-detector-hog
   winSize: [ 40, 56 ]
   blockSize: [ 16, 16 ]
   blockStride: [ 8, 8 ]
   cellSize: [ 8, 8 ]
   nbins: 9
   derivAperture: 1
   winSigma: 4.
   histogramNormType: 0
   L2HysThreshold: 2.0000000000000001e-01
   gammaCorrection: 1
   nlevels: 64
   signedGradient: 0
   SVMDetector: [ 1.84645340e-01, 2.70378292e-01, 1.13463663e-01,
       1.79491565e-02, -1.73487172e-01, -1.25362024e-01, -1.08700059e-01,
       -2.85835471e-03, 7.16537461e-02, 1.29224509e-01, 1.10917725e-01,
       -7.02117383e-02, -6.92572594e-02, -1.41681477e-01,
       -4.66623269e-02, -5.19067757e-02, 3.83203775e-02, 6.76204935e-02,
       -8.70840177e-02, 5.60777076e-03, -9.73698683e-03, -1.36412233e-02,
       -1.34346873e-01, -8.36711153e-02, -7.20779225e-02,
       -6.11349531e-02, -8.70649815e-02, -8.70341882e-02,
       -8.78996924e-02, -1.08430795e-01, -8.57667550e-02,
       -9.03434828e-02, -8.59324168e-03, -3.80169936e-02,
       -2.87997108e-02, -7.24330246e-02, 1.03874668e-01, 6.76928535e-02,
       -3.79973724e-02, -5.53189078e-03, -2.80251782e-02,
       -2.33871285e-02, -7.31663778e-02, -2.29221322e-02, 1.07858644e-03,
       5.23390546e-02, 4.68520559e-02, 9.76292882e-03, 3.55624445e-02,
       -2.96820793e-02, 5.37586063e-02, 1.08161999e-03, -2.26105154e-02,
       -5.16079292e-02, -2.38501504e-02, -2.16656774e-02,
       -1.50781358e-02, 8.16864893e-03, 5.03744036e-02, 4.06487808e-02,
       -5.05754389e-02, -7.06739277e-02, -8.26374963e-02,
       -3.51678487e-03, -1.57978553e-02, 1.52668273e-02, 5.00236005e-02,
       2.84820721e-02, 1.09001100e-01, 6.10100292e-02, 1.94968078e-02,
       -5.16564585e-02, 5.96169271e-02, 4.87768017e-02, -2.36980431e-02,
       6.04785569e-02, 3.91335152e-02, 9.68826935e-02, 2.49353759e-02,
       -4.76900162e-03, -4.61647939e-03, 5.62719516e-02, -1.81011297e-02,
       -1.08858608e-01, 5.77778229e-03, 7.94502348e-03, 4.55595851e-02,
       -2.28377548e-03, -4.17101048e-02, -8.05882923e-03, 7.23064989e-02,
       6.52220175e-02, 5.05522601e-02, 1.14469364e-01, 6.43019974e-02,
       1.43483713e-01, 1.05694160e-01, 6.65452853e-02, -1.02013322e-02,
       -3.23065221e-02, -1.69809368e-02, -2.54469700e-02, 6.29483014e-02,
       8.47415403e-02, 7.21724778e-02, 4.41230275e-02, -5.81643963e-03,
       -7.46809095e-02, 6.08858019e-02, 5.74130677e-02, -6.15211762e-02,
       -2.09325906e-02, -3.70803922e-02, -7.56649394e-03, 1.08533574e-03,
       3.05308495e-02, 5.28231412e-02, -3.77138145e-02, -2.01522280e-02,
       -6.51722252e-02, -7.86198676e-02, -1.07296526e-01,
       -5.49772233e-02, -4.14252207e-02, 2.89123431e-02, 2.11548842e-02,
       3.03747542e-02, 7.23999068e-02, 1.43256774e-02, 5.14663085e-02,
       3.97217833e-02, 3.67494859e-02, 2.69184038e-02, -1.57438964e-03,
       -2.59177666e-02, -4.52866545e-03, 1.26322694e-02, 5.17702335e-03,
       1.26727847e-02, -3.98341473e-03, 2.38262918e-02, -2.36194115e-02,
       -1.43157160e-02, -2.08227076e-02, -2.19258554e-02, 9.02212516e-04,
       -5.63744046e-02, -8.41535553e-02, -1.05321780e-01,
       -5.28903902e-02, -6.82272539e-02, 7.50479102e-02, 8.54183510e-02,
       -1.46191483e-02, -1.32122701e-02, -6.25529364e-02,
       -1.31055057e-01, -1.43229470e-01, -8.45819190e-02,
       -3.53450254e-02, 1.15823314e-01, 1.13684557e-01, 4.77922708e-02,
       7.34577924e-02, 7.79467151e-02, 7.02958480e-02, 2.49225423e-02,
       3.73444036e-02, -4.26067412e-03, 2.15994511e-02, 2.46296637e-02,
       6.20833822e-02, 8.23962912e-02, 6.24986812e-02, 4.93849143e-02,
       2.60878674e-04, 4.49539488e-03, -1.18548097e-03, 7.86315724e-02,
       6.64294884e-02, -4.68787551e-02, -4.39561866e-02, -7.73372427e-02,
       -1.08515032e-01, -1.59685969e-01, -1.20953597e-01,
       -4.46933098e-02, 1.60046950e-01, 8.40277970e-02, 6.11050474e-03,
       -5.00039570e-02, -1.12328529e-01, -1.07289910e-01,
       -1.22751176e-01, -5.15729226e-02, 1.63191989e-01, 3.41682851e-01,
       1.93841681e-01, -5.60954120e-03, 2.67211013e-02, 1.70115773e-02,
       3.09408680e-02, -3.19509283e-02, -6.74890308e-03, -3.16800028e-02,
       1.88807230e-02, 3.60783120e-03, -5.06811626e-02, -5.62690981e-02,
       -7.91360885e-02, -2.04961523e-02, -4.58071679e-02, 1.36588477e-02,
       9.92597565e-02, 1.20848469e-01, 4.84511778e-02, -3.85169648e-02,
       4.24228795e-02, 4.51847985e-02, 6.95734099e-02, -5.56577668e-02,
       -3.13654728e-02, -2.86460724e-02, 6.14367239e-03, -4.46386598e-02,
       2.09741350e-02, 3.83735523e-02, -2.59434823e-02, 1.94279011e-02,
       -5.78056276e-03, 4.92597260e-02, 3.37040909e-02, 4.16192263e-02,
       1.92411914e-02, -5.86934052e-02, -2.59074494e-02, -4.26548533e-02,
       -1.10444780e-02, -8.78978670e-02, -2.13140510e-02,
       -5.69485314e-02, -3.58784497e-02, -8.66187960e-02,
       -2.28110608e-02, -2.35696528e-02, -6.83835596e-02,
       -4.92074154e-03, -5.90405166e-02, 3.05746030e-02, -2.63828598e-02,
       -4.06157319e-03, -7.82129355e-03, -3.80461290e-02,
       -6.62782490e-02, -6.57515898e-02, -9.33367945e-03, 1.06419232e-02,
       1.45690674e-02, -3.09033711e-02, -3.26973274e-02, -5.46972193e-02,
       1.81377437e-02, 2.76904833e-02, 5.39435893e-02, 1.24359429e-01,
       6.90452904e-02, 9.50079933e-02, 2.27664337e-02, 3.28705236e-02,
       9.65818239e-04, -7.64190257e-02, -6.94543719e-02, -5.94552495e-02,
       3.30274031e-02, 5.07907979e-02, -1.22595089e-03, -8.47592279e-02,
       -6.38567209e-02, -4.89121713e-02, 7.89773557e-03, 4.32816111e-02,
       5.58660105e-02, 7.41560757e-02, 2.04736013e-02, 4.82361428e-02,
       8.88978783e-03, 2.17678957e-02, 2.38527246e-02, 6.13239668e-02,
       5.54374456e-02, 4.94782301e-03, 5.71387112e-02, -1.47659471e-02,
       3.16476263e-02, -4.93967440e-03, 3.30699682e-02, 2.45657912e-03,
       2.68305000e-02, 2.56660003e-02, -3.97121944e-02, -4.45414148e-03,
       -9.09626950e-03, -5.93549432e-03, -3.97779197e-02,
       -5.08393534e-02, -6.86075464e-02, 7.22765103e-02, 6.26514032e-02,
       3.43057588e-02, 2.62555461e-02, -4.09121588e-02, 3.26170027e-02,
       3.67166139e-02, 6.61881194e-02, 3.13223079e-02, 3.17159183e-02,
       1.88878924e-03, -1.12336280e-03, 3.93043198e-02, -2.15915181e-02,
       4.30953838e-02, -1.41128767e-02, 1.16752228e-02, -3.25093977e-02,
       4.86016273e-02, 3.51065807e-02, -4.22503725e-02, -3.04741468e-02,
       -1.86872389e-02, -3.71221863e-02, -1.60886794e-02, 4.78501897e-03,
       -3.05361003e-02, 1.87319946e-02, 5.05324127e-03, -4.81517240e-03,
       -1.93405692e-02, -2.80556791e-02, -1.65915247e-02,
       -7.94782955e-03, -3.04349922e-02, -3.02428529e-02, 4.68443036e-02,
       5.30907139e-02, 1.85723472e-02, 3.44992653e-02, 2.10992177e-03,
       6.01349324e-02, 2.78340857e-02, 3.95969525e-02, 3.72603373e-03,
       2.06613764e-02, 5.97845800e-02, 5.11196703e-02, 7.93281011e-03,
       -1.41327782e-02, 2.69503780e-02, 3.95926014e-02, 9.26931016e-03,
       7.79715087e-03, -3.11186630e-02, 5.01935254e-04, 1.44936414e-02,
       4.33184585e-04, -1.60348490e-02, -1.69327855e-02, -3.37691568e-02,
       -2.58513987e-02, -6.67555183e-02, -2.62611639e-02,
       -1.11170243e-02, -1.27091240e-02, 1.29211824e-02, -1.36608724e-02,
       -2.36851908e-02, -3.78072076e-02, -8.08333233e-03,
       -4.62075099e-02, 1.13168685e-02, 9.01653767e-02, 9.39093307e-02,
       5.92305809e-02, 6.79711485e-03, 5.26902303e-02, 9.79795214e-03,
       -2.30720472e-02, -2.71698050e-02, -5.53627079e-03, 8.02929029e-02,
       5.34145534e-02, 6.82208985e-02, 3.37305404e-02, 3.78684700e-02,
       1.92640200e-02, 3.17119434e-02, 4.27880744e-03, -1.28933741e-02,
       -4.26485157e-03, -7.03574345e-03, 6.22855909e-02, 1.41242966e-02,
       2.19067540e-02, -2.60290615e-02, -1.56248277e-02, -4.45628986e-02,
       -7.87183419e-02, -1.14408925e-01, -7.32477680e-02,
       -1.34979486e-02, -5.64125553e-02, -4.96510938e-02, 7.79239228e-04,
       1.51060903e-02, -2.48650461e-02, 1.83698665e-02, 5.19229695e-02,
       3.48357931e-02, 1.37304798e-01, 9.23004001e-02, 1.04407802e-01,
       2.90247146e-02, 5.52027486e-02, 4.97428589e-02, -3.53670940e-02,
       -2.26929262e-02, 4.19159979e-03, 8.20021555e-02, 1.40289590e-02,
       4.60375808e-02, 2.97170933e-02, 1.96529552e-02, 1.67995933e-02,
       -6.08627982e-02, -3.31315324e-02, -4.09754589e-02, 9.21824761e-03,
       -5.14720418e-02, 7.03810714e-03, -5.64759709e-02, -5.66138253e-02,
       -8.06433856e-02, -4.11925055e-02, -1.97929200e-02,
       -3.40520553e-02, 2.40548663e-02, -2.71484442e-02, 6.58029616e-02,
       -4.28362796e-03, -7.68128596e-03, -3.03997044e-02,
       -8.06479231e-02, -3.76047418e-02, -1.62607469e-02, 2.37287413e-02,
       -4.35324274e-02, 1.84704196e-02, -5.96874356e-02, -5.95971234e-02,
       -5.25656007e-02, -5.67270443e-03, 2.86447466e-03, -1.05543686e-02,
       3.01040616e-03, -2.63248868e-02, 8.05400908e-02, 1.20901288e-02,
       -8.07647884e-04, -7.05695897e-03, -4.87930700e-02,
       -7.78965205e-02, -8.49679932e-02, -1.52790546e-02, 5.88864423e-02,
       -1.66688431e-02, -5.86306304e-02, -3.19154002e-02,
       -3.13587263e-02, 1.47397248e-02, 4.25706618e-02, 3.14956270e-02,
       1.05735339e-01, 1.36360079e-02, 7.55070476e-03, 2.20817439e-02,
       4.17296588e-02, 3.03583741e-02, -3.01088803e-02, -6.62699491e-02,
       -6.76089451e-02, -1.31207108e-02, 4.04615030e-02, 8.49117804e-03,
       -8.01488683e-02, -6.10717162e-02, -3.46783176e-02, 2.56172884e-02,
       4.80939709e-02, 4.16077264e-02, 4.45717797e-02, -2.25170944e-02,
       8.26004818e-02, 3.93902063e-02, 4.09837477e-02, 2.66096424e-02,
       3.63054127e-02, 5.38687371e-02, 2.63796914e-02, -5.70525276e-03,
       -6.17546551e-02, -9.17500257e-03, 2.98955310e-02, 9.25806314e-02,
       3.08397990e-02, 3.27082053e-02, 2.64331400e-02, 7.45835481e-03,
       4.89756130e-02, -2.04714630e-02, 6.09303592e-03, -2.43702978e-02,
       7.42513174e-03, -2.66665183e-02, 5.10724932e-02, 7.88995549e-02,
       4.35958914e-02, -3.13805044e-02, -3.71853746e-02, 1.65125132e-02,
       4.55810167e-02, 9.31326747e-02, 5.53857610e-02, 3.60424854e-02,
       3.35815325e-02, 2.40117833e-02, 5.00536673e-02, -9.79515444e-03,
       -3.37234535e-03, -3.66363339e-02, -4.47562803e-03, 8.72622617e-03,
       1.58410501e-02, -3.04367375e-02, -1.99397113e-02, 1.43769793e-02,
       -1.36665469e-02, 4.24003275e-03, -5.31142727e-02, 2.34020818e-02,
       -6.33943034e-03, 5.81004843e-03, 8.29710998e-03, 1.58133302e-02,
       -2.97519155e-02, -4.63718027e-02, -9.48936772e-03,
       -4.26840037e-04, 4.74173501e-02, 4.83619544e-04, 3.20902504e-02,
       -1.96547695e-02, 4.03969409e-03, 4.11752276e-02, -1.46459090e-02,
       -8.86955298e-03, -5.67931905e-02, 1.42859044e-02, 2.90240757e-02,
       1.15670608e-02, 1.76170152e-02, 2.95080245e-02, 5.64585738e-02,
       -3.18540893e-02, -6.45409152e-03, 6.42126938e-03, 4.91718799e-02,
       9.09336377e-03, -2.17960533e-02, 3.24485227e-02, 2.60098651e-02,
       8.24891217e-03, -4.85083796e-02, -1.48740411e-02, 5.81873406e-04,
       -1.33937947e-03, -5.58481961e-02, -6.22972809e-02, 3.93178780e-03,
       -3.04750772e-03, 3.20680998e-02, 5.34092188e-02, 2.93011386e-02,
       8.80542491e-03, -1.24644749e-02, -5.31862527e-02, -3.00929621e-02,
       3.72989252e-02, 3.22378352e-02, 5.30926399e-02, -2.55777389e-02,
       1.69534609e-02, 4.38477695e-02, 8.28973390e-03, -6.35014698e-02,
       -6.16963282e-02, -2.02414412e-02, -2.43409704e-02, 6.05282374e-02,
       4.07965714e-03, 1.59977898e-02, -1.51867848e-02, -3.11174169e-02,
       -5.64232841e-02, -7.73941353e-02, -3.03981062e-02, 1.42410193e-02,
       1.65302247e-01, 1.17505930e-01, 9.10797641e-02, -1.27357356e-02,
       -7.45025463e-03, -5.26313446e-02, -1.02825776e-01,
       -7.08937868e-02, -2.44502574e-02, 6.82106316e-02, 2.56559290e-02,
       3.76256295e-02, -8.48110914e-02, -8.19705278e-02, -9.46901888e-02,
       -4.95339967e-02, -4.68427986e-02, 1.52597681e-03, 1.10477500e-01,
       9.14714858e-02, 1.18153624e-01, -1.35045229e-02, -2.41406672e-02,
       -4.11282033e-02, -8.02174658e-02, -7.29820132e-02,
       -4.15921025e-02, 4.65839952e-02, 2.22235229e-02, 3.84988263e-02,
       -1.03242107e-01, -1.03105493e-01, -7.86520466e-02,
       -1.09868705e-01, -6.49174526e-02, -3.77887376e-02, 6.76606223e-03,
       -5.96419945e-02, -2.02512443e-02, -1.07795835e-01,
       -6.81513473e-02, -8.39716196e-02, -3.39245088e-02, 2.77431160e-02,
       -1.81518383e-02, 3.06817498e-02, -7.22568035e-02, 6.02586046e-02,
       -2.64931563e-02, -4.03257832e-02, -5.64997271e-02,
       -1.13040674e-03, -4.64144759e-02, -9.88936499e-02,
       -7.00567216e-02, -1.25459984e-01, 1.56061901e-02, 4.23350893e-02,
       1.06780045e-01, 1.05920225e-01, 2.31309012e-02, 5.31162620e-02,
       1.68886166e-02, -1.04399426e-02, -5.69940247e-02, 6.00250028e-02,
       2.71778628e-02, 3.65555361e-02, 5.52092120e-02, -6.12774231e-02,
       -7.59981796e-02, -6.92153871e-02, -4.56842565e-04, 5.06647378e-02,
       4.10662554e-02, -5.09393997e-02, -8.23744982e-02, -7.90668726e-02,
       4.01542801e-03, 2.52413061e-02, 4.94526364e-02, 5.42108528e-02,
       -1.14551112e-02, 7.69407004e-02, 4.58375551e-02, 3.39986272e-02,
       -1.06539037e-02, -5.87324947e-02, -6.74425736e-02,
       -1.29699493e-02, 4.43230607e-02, 5.29669449e-02, 4.71937619e-02,
       -2.22342499e-02, -5.39742261e-02, -6.22764826e-02,
       -1.74786057e-02, 2.15093829e-02, 9.48253050e-02, 1.54736876e-01,
       9.06734318e-02, 1.61552235e-01, 8.73880461e-02, 6.61469549e-02,
       -1.34538440e-02, 3.54816467e-02, 4.65798415e-02, 4.02927510e-02,
       -7.54997274e-03, -3.08969356e-02, 4.93355542e-02, 3.35204490e-02,
       1.06586881e-01, 7.57594556e-02, -1.09510608e-02, 3.30060832e-02,
       3.28120627e-02, 4.57275100e-02, -9.47200134e-03, 6.09667273e-03,
       -2.99881883e-02, 3.11156847e-02, 1.46329766e-02, -3.10017895e-02,
       2.60947621e-03, 7.86513388e-02, 1.31597772e-01, 1.22188162e-02,
       7.36036971e-02, -2.36744015e-03, 6.05913103e-02, 3.09630707e-02,
       -9.22005028e-02, -6.96464479e-02, 1.14893923e-02, 6.58927709e-02,
       -5.30039193e-03, -4.47078906e-02, -8.38480443e-02, 1.80464182e-02,
       -2.02312004e-02, 3.06792767e-03, 1.01869581e-02, 4.00257148e-02,
       6.41158223e-02, 3.04124579e-02, 1.76165905e-02, -7.59301009e-03,
       7.68417642e-02, 4.11421843e-02, -1.30265090e-03, 1.88741647e-02,
       4.37018536e-02, 4.68492247e-02, 3.77007504e-03, 4.66844067e-02,
       4.68736440e-02, 6.87713102e-02, 5.55433705e-03, -5.95320389e-02,
       -2.05764305e-02, 2.40746443e-03, -1.79972257e-02, -5.93262538e-02,
       -3.54831964e-02, -2.81404722e-02, 5.89372702e-02, -4.28031245e-03,
       -3.61127853e-02, -6.71229884e-02, -4.56727445e-02,
       -6.90180063e-02, -8.38053748e-02, 1.85559911e-03, 9.90423094e-03,
       7.02661574e-02, 8.12998042e-03, -2.91299205e-02, 3.16973664e-02,
       3.16425711e-02, 7.13971704e-02, 7.29826242e-02, 9.33675468e-02,
       9.75958630e-02, 7.37545714e-02, -1.91029850e-02, -1.80361141e-03,
       2.49079522e-02, 3.09768487e-02, 9.66052860e-02, 6.34293482e-02,
       7.20638558e-02, 1.25693921e-02, 4.62212376e-02, 8.14665016e-03,
       -4.58066761e-02, 9.38695273e-04, -1.39529426e-02, -4.22116555e-02,
       -5.04545234e-02, 5.13404747e-03, 4.56900969e-02, 3.21423709e-02,
       -3.14721018e-02, 1.29485736e-02, 2.83250250e-02, -3.24852243e-02,
       -2.87488941e-02, -4.76732403e-02, -5.08004203e-02,
       -4.76814210e-02, 7.71252578e-03, 4.37521702e-03, 1.01299714e-02,
       -1.44589331e-03, 1.95400994e-02, 1.02537520e-01, 6.57412261e-02,
       9.88018140e-02, 3.80473062e-02, 5.63419200e-02, 2.59299167e-02,
       9.46263317e-03, 1.93216670e-02, 2.18656491e-02, 4.01160307e-02,
       4.76175137e-02, 8.38943273e-02, -4.06434499e-02, -3.22008580e-02,
       -1.04072159e-02, 1.49541302e-02, 2.04205643e-02, -3.02844476e-02,
       -5.56729101e-02, -7.74783790e-02, -1.26091286e-03,
       -2.03760080e-02, 1.28567852e-02, 9.02034808e-03, 8.02372694e-02,
       1.64735079e-01, 1.20980062e-01, -3.00654266e-02, -1.05384298e-01,
       -5.11077270e-02, -1.01855442e-01, -1.00520261e-01,
       -5.75560704e-02, -1.04027653e+00 ]
