%YAML:1.0
---
my_detector_10h41: !!opencv-object-detector-hog
   winSize: [ 40, 56 ]
   blockSize: [ 24, 24 ]
   blockStride: [ 8, 8 ]
   cellSize: [ 8, 8 ]
   nbins: 9
   derivAperture: 1
   winSigma: 6.
   histogramNormType: 0
   L2HysThreshold: 2.0000000000000001e-01
   gammaCorrection: 0
   nlevels: 64
   signedGradient: 0
   SVMDetector: [ 1.79503486e-01, 2.17662960e-01, 8.68089572e-02,
       -1.61015941e-03, -1.32594690e-01, -8.84991586e-02,
       -5.47721349e-02, -5.66814188e-03, 5.98918647e-02, 2.15183064e-01,
       1.52726278e-01, -2.28899475e-02, -2.77254824e-02, -1.04619980e-01,
       -6.67584091e-02, -7.73948655e-02, 3.25981602e-02, 1.17889911e-01,
       5.44542111e-02, 5.55089600e-02, -1.74872503e-02, 1.95654053e-02,
       1.33784227e-02, 6.66988716e-02, 1.87406819e-02, -6.66932482e-03,
       -2.07898691e-02, -1.13707304e-03, 7.52538890e-02, 3.15977968e-02,
       1.37939751e-02, -1.17555246e-01, -8.46839175e-02, -4.51931283e-02,
       -1.36824278e-02, -2.20033657e-02, -3.02246977e-02, 4.47770255e-03,
       -2.87605785e-02, -4.66487147e-02, -4.98337373e-02, 4.07099575e-02,
       -1.26057845e-02, 1.43753849e-02, -2.60326527e-02, -1.91446282e-02,
       -2.47814190e-02, -1.07694613e-02, 5.10323979e-02, 3.96528505e-02,
       1.15408771e-01, 5.10633923e-02, 4.13139500e-02, -4.88570742e-02,
       -3.13040614e-02, 1.42750237e-03, -2.57102717e-02, -8.62937141e-03,
       -4.65422198e-02, -2.77828071e-02, -3.68747897e-02,
       -1.86430980e-02, -2.96570063e-02, -3.97282355e-02,
       -3.46433222e-02, -6.39401525e-02, -2.88382787e-02,
       -2.41280738e-02, 2.64609084e-02, 4.64472128e-03, 1.90839265e-02,
       -1.48510579e-02, -9.49540816e-04, -3.20022963e-02,
       -2.04496477e-02, 5.13296649e-02, 2.95552555e-02, 6.79410761e-03,
       -3.18875648e-02, 3.13674472e-03, -7.56009063e-03, 5.70614561e-02,
       3.35442871e-02, -2.49096192e-02, 9.56182182e-03, -1.77244153e-02,
       -1.87605154e-02, -4.06441726e-02, -2.12453846e-02, 7.00882170e-03,
       4.02446017e-02, 4.34629060e-02, -1.39693934e-02, 3.85622121e-02,
       4.60587395e-03, 8.38365182e-02, 2.81564631e-02, -1.39556704e-02,
       -3.76668051e-02, 9.34345368e-03, 2.24048048e-02, -5.30998260e-02,
       1.19905425e-02, 1.90982334e-02, 3.09316590e-02, -3.44441971e-03,
       -1.94643885e-02, -4.47728857e-02, -3.23900320e-02,
       -2.35928502e-03, -1.22676231e-02, 5.69914952e-02, 5.67437597e-02,
       5.89203201e-02, -1.76434610e-02, -2.65815556e-02, -5.69304116e-02,
       5.75260399e-03, 2.56633442e-02, 5.56441583e-02, 4.58068959e-02,
       3.50783691e-02, 1.22278020e-01, 5.99883609e-02, 5.52949533e-02,
       -1.03685297e-02, 8.86114407e-03, 1.48815261e-02, -6.49234233e-03,
       6.86987340e-02, 7.16859326e-02, 8.75456408e-02, 3.81200127e-02,
       2.54548527e-03, -6.40432015e-02, -1.67194717e-02, -1.21604707e-02,
       -6.94993325e-03, 2.84368433e-02, 3.07568423e-02, 1.36914784e-02,
       -2.96777952e-02, -5.02396468e-03, -1.41373668e-02, 4.87212129e-02,
       1.93672944e-02, 2.91229021e-02, 3.03360000e-02, -1.81945711e-02,
       2.99795810e-02, 8.63477215e-03, 3.85509953e-02, 2.09692027e-02,
       1.13657573e-02, -2.42973287e-02, -4.38370220e-02, 1.62297487e-02,
       2.90466323e-02, 4.51618135e-02, 2.44284142e-02, 2.53348872e-02,
       -1.44267688e-02, 2.52308752e-02, 3.04559283e-02, -2.60416549e-02,
       8.12605605e-04, -6.35379413e-03, 2.49569323e-02, 1.01654446e-02,
       -1.48003909e-03, -2.69653220e-02, 4.88144867e-02, 3.75040397e-02,
       -6.97460100e-02, 6.53942395e-03, -3.52097116e-02, 7.38526089e-03,
       -2.93538324e-03, 1.13165621e-02, 8.88278708e-03, 4.43191326e-04,
       1.33330775e-02, -3.15037444e-02, -5.81712499e-02, -9.98387039e-02,
       -4.55497727e-02, -6.04345314e-02, 3.04011814e-03, 1.92272291e-02,
       5.70375696e-02, 7.44390264e-02, 3.62931639e-02, 1.08250521e-01,
       7.66432509e-02, 1.12968087e-01, 5.82849532e-02, 4.56144698e-02,
       -1.07135754e-02, -3.20669590e-03, 2.13303789e-02, -3.54689732e-03,
       1.49898399e-02, 1.43308425e-02, 9.52406134e-03, 1.75348017e-02,
       -5.23502612e-03, -3.83181609e-02, 1.00485105e-02, 2.91549601e-02,
       3.12028769e-02, 3.85912135e-02, -1.03510907e-02, 1.56507008e-02,
       -2.05992740e-02, -1.27468649e-02, -2.91974414e-02, 4.66771908e-02,
       4.88974452e-02, 1.80626046e-02, 7.33831823e-02, 3.38069834e-02,
       3.75323482e-02, 6.55555725e-03, 2.39713769e-02, 4.22063144e-03,
       4.43242267e-02, 4.83982228e-02, 4.08845618e-02, 6.44726306e-02,
       2.57425290e-02, 6.92323446e-02, 3.84650081e-02, 4.76586595e-02,
       1.08862910e-02, 4.66690259e-03, 5.89896878e-03, 4.94530285e-03,
       1.94455516e-02, 1.77278109e-02, 3.89041193e-02, 1.13757364e-02,
       2.69938214e-03, -1.05754174e-02, 1.96899325e-02, 1.65918954e-02,
       -6.61520660e-02, -3.33549753e-02, -6.44738898e-02,
       -1.02253063e-02, 2.21962226e-03, 2.55561583e-02, 1.37848165e-02,
       2.78979801e-02, 3.99895944e-03, -6.68369755e-02, -1.02233827e-01,
       -1.46219820e-01, -4.12556566e-02, -3.74919623e-02, 9.50962827e-02,
       1.05048418e-01, -3.35873403e-02, -2.12625135e-02, -4.71862257e-02,
       -8.62097815e-02, -1.22855231e-01, -7.94553906e-02,
       -8.68300796e-02, 5.75801246e-02, 5.44784553e-02, 3.84388007e-02,
       4.94047366e-02, 4.61728452e-03, 4.93802801e-02, 3.82301100e-02,
       3.36633362e-02, 4.60933661e-03, 3.79655906e-03, -1.97613072e-02,
       5.89989405e-03, 3.87444459e-02, 3.31621245e-02, 9.20452364e-03,
       -2.01705452e-02, 2.09040157e-02, -1.57986470e-02, 1.02187432e-02,
       -4.99596726e-03, -1.03547554e-02, 8.83516204e-03, -5.10349171e-03,
       3.35914791e-02, -2.03568302e-02, -1.81691349e-02, -2.57483628e-02,
       2.24539004e-02, -5.84489154e-03, 4.30860482e-02, 3.84800807e-02,
       7.36800674e-03, 5.92947789e-02, 2.82315854e-02, 2.15855874e-02,
       -8.31213500e-03, 1.45769259e-02, 6.04090048e-03, 4.37892452e-02,
       9.02369618e-02, 7.74038807e-02, 6.53541312e-02, 3.74917849e-03,
       7.94089884e-02, 4.47594002e-02, 2.89677922e-02, 4.11713775e-03,
       3.03415791e-03, 3.90817225e-02, 8.12121946e-03, 4.20017391e-02,
       4.53572907e-02, 4.33554277e-02, 9.33315512e-03, 8.75498913e-03,
       -1.00944592e-02, -8.90961755e-03, -2.06547696e-03,
       -4.09393273e-02, -6.83582798e-02, -8.71006846e-02,
       -3.63032185e-02, -5.38249724e-02, 3.78071256e-02, 6.35362566e-02,
       1.09240143e-02, -2.04728525e-02, -7.01275319e-02, -1.29228950e-01,
       -2.13669822e-01, -1.35837734e-01, -4.55337055e-02, 2.29770333e-01,
       1.87783763e-01, -9.49080009e-03, -2.92940643e-02, -8.40456858e-02,
       -1.20896749e-01, -1.62695512e-01, -9.26758349e-02, 9.65470225e-02,
       3.11439037e-01, 1.30446091e-01, 2.76644677e-02, 6.30142614e-02,
       5.02288751e-02, 6.46714196e-02, 5.30991331e-03, 2.59957220e-02,
       -1.71774235e-02, 5.36542153e-03, 1.98673690e-03, 4.55540977e-02,
       4.05324064e-02, 1.18219675e-02, 3.74971773e-03, -5.46420515e-02,
       4.74198372e-04, 1.01663480e-02, 8.02235156e-02, 7.90490583e-02,
       -5.95895238e-02, -8.26329738e-02, -1.10544115e-01,
       -5.11533991e-02, -8.03917646e-02, -2.74799159e-03, 1.19074218e-01,
       1.64921120e-01, 2.87369024e-02, 2.79161129e-02, 7.79199749e-02,
       6.27061725e-02, 4.29958291e-02, 1.30876703e-02, 8.48928560e-03,
       -1.43765463e-02, -1.62283164e-02, -2.04287414e-02, 3.12092267e-02,
       7.85801932e-02, 5.63690215e-02, 1.21091120e-01, 7.41809532e-02,
       1.03360355e-01, 4.06905934e-02, 5.89480735e-02, 3.36180106e-02,
       -3.85438651e-02, -2.41083223e-02, -2.62234733e-02, 3.64304669e-02,
       4.80380878e-02, 4.26661558e-02, 9.27371811e-03, 2.88492814e-02,
       -5.74095966e-03, -1.99090857e-02, 1.10617280e-02, -8.66241939e-03,
       1.77439768e-02, -3.22057195e-02, -2.91824713e-02, -1.94510091e-02,
       -8.48141778e-03, -2.62287594e-02, -9.84246843e-03, 9.60298814e-03,
       -2.04009321e-02, 1.98201686e-02, -3.41712934e-04, 2.83724312e-02,
       -4.82326746e-03, 9.88348573e-03, -2.17663571e-02, 1.03933010e-02,
       2.12143064e-02, 1.57638639e-02, 5.86358458e-02, 2.30298880e-02,
       2.40570307e-02, -2.14949735e-02, 7.44245667e-03, -1.55794816e-02,
       -6.57599941e-02, -2.06476562e-02, -3.92896011e-02, 5.76660316e-03,
       -5.48343286e-02, -2.53028125e-02, -6.05921000e-02,
       -3.73226032e-02, -6.39005974e-02, -4.81043756e-02,
       -2.92295627e-02, -2.71977559e-02, 2.94171683e-02, -8.29489552e-04,
       4.34414558e-02, -1.09597938e-02, 1.58413837e-03, -1.54694123e-02,
       2.13270690e-02, 1.04465308e-02, 2.32065078e-02, 6.25751615e-02,
       3.90313129e-04, 2.81941462e-02, -5.26761578e-05, 2.73493677e-02,
       2.54320726e-02, -5.25924116e-02, -1.52127296e-02, -1.50359431e-02,
       -4.90470463e-03, -1.80827752e-02, -3.67427059e-03,
       -3.92157696e-02, -1.99038703e-02, -5.54602668e-02,
       -2.31151916e-02, -1.34922760e-02, -1.65414885e-02, 7.24766229e-04,
       2.09179018e-02, 7.79645592e-02, -9.78218392e-03, -9.75551363e-03,
       -2.80342847e-02, 2.41034082e-03, -1.83139425e-02, -9.28110164e-03,
       4.65141051e-02, 2.03174893e-02, 6.69791922e-02, -1.93542726e-02,
       2.13879086e-02, -3.19945836e-03, -8.96464381e-03, -8.45913310e-03,
       -1.85744297e-02, 1.54502280e-02, 3.42243561e-03, 1.43223600e-02,
       -1.84034370e-02, -1.53314294e-02, -2.22852565e-02, 3.59954312e-02,
       4.29339595e-02, 3.88122350e-02, 6.17085584e-02, -3.89718171e-03,
       1.94516219e-02, -2.86033023e-02, 1.58290956e-02, -4.05878853e-03,
       3.41308005e-02, 4.04107273e-02, -2.19429424e-03, 2.88129169e-02,
       2.04578580e-04, 6.22731401e-03, -1.76796857e-02, 2.47657229e-03,
       -1.48816546e-02, -3.19437720e-02, -3.74340788e-02,
       -3.16595323e-02, 3.12953889e-02, 6.40097708e-02, 8.11364222e-03,
       -2.75505558e-02, 1.76734931e-03, -1.63716525e-02, 9.86734405e-03,
       2.80141383e-02, 3.71349640e-02, -1.51398620e-02, -7.66011775e-02,
       -1.32977893e-03, 1.56830233e-02, 6.41427264e-02, 3.34357545e-02,
       4.56495397e-02, 1.85642820e-02, 1.94885600e-02, 4.24505286e-02,
       -8.01322144e-03, 6.13068268e-02, 3.06039229e-02, 3.61339524e-02,
       7.06376182e-03, -6.30658353e-03, -2.28237230e-02, -2.01768931e-02,
       5.86001715e-03, 3.35765556e-02, 2.71456428e-02, -2.97139809e-02,
       -1.32602155e-02, -1.46050332e-02, 3.65285128e-02, 2.14673895e-02,
       1.33902561e-02, -1.21464431e-02, -3.54603119e-02, 2.06099954e-02,
       9.86746792e-03, 6.22586943e-02, 3.65225114e-02, 1.17302435e-02,
       -9.77041665e-03, -8.86272918e-03, 1.84027124e-02, 4.15278273e-03,
       7.95602053e-03, -2.02575279e-03, 3.66358608e-02, 2.97304597e-02,
       3.69093157e-02, 2.73686349e-02, -1.87450815e-02, -1.02472743e-02,
       -4.13271897e-02, -3.30606243e-03, -5.03464416e-03, 1.76810231e-02,
       3.32678901e-04, 4.84888442e-02, 4.94213961e-02, -1.35527859e-02,
       9.72942263e-03, -2.73480825e-02, -5.31666819e-03, -2.42981128e-02,
       -8.81720160e-04, -1.62736159e-02, 1.80156827e-02, 7.29963602e-03,
       -6.49443269e-03, 3.43280006e-03, -1.29004270e-02, -8.64028931e-03,
       -4.14747223e-02, -1.85093824e-02, -1.47386622e-02, 4.83998768e-02,
       3.96237113e-02, 3.06972899e-02, 3.84568051e-02, -1.75723284e-02,
       3.10335979e-02, 3.09373923e-02, 4.77283858e-02, 2.25113574e-02,
       9.57193598e-03, 6.21176232e-03, 7.47905439e-03, -1.63351409e-02,
       -4.38179262e-02, 1.24855861e-02, -1.57654975e-02, 9.55845229e-03,
       -7.16820359e-03, 1.22239664e-02, 9.33641382e-03, 2.14409847e-02,
       7.00630015e-03, -3.46699841e-02, 2.34720558e-02, 2.05451678e-02,
       4.83748503e-03, -8.55650287e-03, 2.76400261e-02, 3.40992585e-02,
       2.13794671e-02, 9.53387120e-04, -2.78967358e-02, 4.10268083e-03,
       -1.04715610e-02, 3.82178761e-02, 2.34788805e-02, 3.97610478e-02,
       1.92971230e-02, 2.84192953e-02, 5.48644587e-02, -9.95186274e-04,
       2.26778872e-02, -1.70667153e-02, 3.49293277e-02, 3.38615887e-02,
       -7.67621072e-03, 2.33214777e-02, 2.61851996e-02, 2.40710955e-02,
       2.74173543e-02, 8.56101979e-03, -5.94970677e-03, 1.08207259e-02,
       -5.39022358e-03, 2.23378651e-02, -2.64269711e-05, -4.70539555e-02,
       -2.21500006e-02, -4.65265252e-02, -2.80644856e-02,
       -3.79988253e-02, 4.83983289e-03, -5.70392469e-03, 2.82319682e-03,
       1.68094579e-02, 1.64575279e-02, 3.77610363e-02, -1.29347024e-02,
       1.46020669e-02, -1.14241270e-02, -5.58279082e-03, -3.13609689e-02,
       -2.65190639e-02, -1.97896715e-02, -1.85988545e-02, 2.53893472e-02,
       5.97150205e-03, -1.15814414e-02, -2.92461962e-02, -2.35541482e-02,
       -3.82194743e-02, 3.25675048e-02, 3.46750626e-03, -1.39557132e-02,
       1.71089396e-02, 1.69088400e-03, 2.47223675e-02, -2.06356738e-02,
       5.07283164e-03, 1.26890913e-02, -1.31336460e-02, 4.32107933e-02,
       1.10341627e-02, 1.19882813e-02, -7.40886331e-02, -2.29296554e-02,
       -1.81661397e-02, 4.00522863e-03, -3.07418145e-02, -3.43669057e-02,
       2.35001426e-02, 4.34027379e-03, 3.50256935e-02, 4.17594519e-03,
       2.33109668e-02, -9.41569079e-03, -6.70651952e-03, -4.59160246e-02,
       2.40886789e-02, 1.64778326e-02, 2.18069479e-02, 3.13735157e-02,
       -5.52623672e-03, -1.72262508e-02, -4.97326143e-02,
       -1.98452198e-03, 3.35186459e-02, 1.73786264e-02, 8.26608613e-02,
       7.16850013e-02, 6.78085759e-02, -3.35451192e-03, 2.82040071e-02,
       4.13274020e-02, 4.12222221e-02, -6.99507911e-03, -2.43807938e-02,
       2.01097783e-02, 1.22680450e-02, 6.44731596e-02, 3.70256267e-02,
       8.40906426e-03, -6.35293836e-04, 9.96868126e-03, -2.99604684e-02,
       -1.12468312e-02, 1.21219596e-03, -1.51248304e-02, 8.77108984e-03,
       -1.94836482e-02, -1.54726356e-02, -2.19494179e-02,
       -1.60864927e-02, -3.36394459e-02, -2.73551866e-02,
       -2.10460871e-02, -1.40250195e-02, 5.63790686e-02, 1.78855881e-02,
       5.72594581e-03, -2.82068606e-02, -7.77619984e-03, -4.98585142e-02,
       -5.08931354e-02, -5.85242957e-02, -7.21665844e-02,
       -2.44508516e-02, -1.29768001e-02, -2.15066858e-02,
       -2.68231109e-02, -6.90179598e-03, -5.32324202e-02,
       -1.74980506e-03, 5.27581908e-02, 4.51501496e-02, 2.86947098e-02,
       -3.81966010e-02, -4.01814410e-04, -1.84729788e-02,
       -2.84005813e-02, -4.49209437e-02, -6.99998885e-02, 6.76134182e-03,
       4.66063283e-02, 8.17312747e-02, 1.23593565e-02, 6.34777769e-02,
       -2.74644117e-03, 3.71209625e-03, -4.34631184e-02, -1.05002761e-01,
       -6.19405136e-02, -2.37634499e-02, 9.17262062e-02, 3.99655290e-02,
       5.47383353e-02, -3.36770564e-02, -5.27358726e-02, -7.67432153e-02,
       5.47056319e-04, 5.46336435e-02, 4.40099239e-02, 5.82916522e-03,
       7.67846406e-03, -1.27271414e-02, -5.01500582e-03, 1.01992227e-02,
       -1.53351501e-02, -3.46467048e-02, 1.81540065e-02, 5.09723909e-02,
       1.51812777e-01, 1.07613593e-01, 1.31327406e-01, 2.00944878e-02,
       1.44047141e-02, -4.72637303e-02, -3.35608348e-02, -4.12209658e-03,
       1.19466325e-02, 6.80261552e-02, 4.97678518e-02, 4.03700881e-02,
       -4.67310324e-02, -2.35570315e-02, -3.76268737e-02,
       -3.45610380e-02, -6.72689639e-03, -1.54949455e-02,
       -2.03632377e-03, -2.27220356e-02, -5.06725349e-03,
       -3.67420800e-02, -1.72575228e-02, -3.40316966e-02,
       -3.14176343e-02, -2.32103541e-02, -1.88978575e-02, 3.72382998e-02,
       3.11433449e-02, 2.97891144e-02, -1.82947274e-02, 1.71070024e-02,
       -1.78642869e-02, -7.95691740e-03, 1.31174282e-03, 1.07353856e-03,
       7.40136132e-02, 5.89388683e-02, -1.61412952e-03, -5.33974096e-02,
       -1.39048761e-02, -1.85498539e-02, -7.66049325e-02,
       -2.70523746e-02, -3.01489513e-02, -2.02099532e-02,
       -6.81794435e-02, -1.73503626e-02, -6.95288479e-02,
       -3.33814435e-02, -8.51036683e-02, -4.35721092e-02,
       -4.41033905e-03, 7.83957727e-03, 4.38512117e-02, -4.31221537e-03,
       3.52012366e-02, -2.89900322e-02, -3.68460678e-02, -5.74386567e-02,
       1.59348901e-02, 1.55680329e-02, 3.27068083e-02, 5.85210323e-02,
       -2.10241117e-02, 8.52250904e-02, 1.55121861e-02, 3.69343162e-02,
       4.11322666e-03, -2.04254244e-03, -2.82263141e-02, -5.17311879e-02,
       -5.07225059e-02, -8.39057192e-02, -1.17852241e-02, 2.10647490e-02,
       8.70159268e-02, 4.94030043e-02, -5.44867385e-03, 7.12792156e-03,
       -1.33099770e-02, 2.41005886e-02, -2.17018127e-02, 7.26419464e-02,
       2.07174104e-02, 2.17136126e-02, -1.11491289e-02, -4.79533523e-02,
       -2.33292673e-03, 4.31968383e-02, 1.00742094e-01, 4.66879159e-02,
       1.05142780e-01, 2.81619038e-02, 4.77733761e-02, -1.16514508e-02,
       -1.45254908e-02, -2.38477625e-02, -1.83187183e-02, 7.13054091e-03,
       1.58070810e-02, 2.99686380e-03, -2.81284321e-02, 1.96948065e-03,
       -3.09531763e-03, 3.02130617e-02, 2.66591366e-02, 1.82598233e-02,
       3.55147161e-02, -1.98433679e-02, -1.56454518e-02, -8.83455854e-03,
       3.52711342e-02, 1.37902526e-02, 1.68337710e-02, 2.38679387e-02,
       -2.95069790e-03, 3.12321559e-02, 2.97851139e-03, 6.36524346e-04,
       -1.51092820e-02, 3.02639068e-03, -2.80294730e-03, -2.07778551e-02,
       -2.94590164e-02, -2.45455652e-02, 3.32860276e-02, 4.50285077e-02,
       5.97633906e-02, -3.89479287e-02, -3.22472230e-02, -4.28150892e-02,
       2.85959262e-02, 4.83038835e-02, 4.36024815e-02, 2.01597493e-02,
       -6.17659688e-02, 1.90076530e-02, 4.97143529e-02, 7.67867416e-02,
       2.67502144e-02, 1.97363701e-02, 2.09341291e-02, 4.75107431e-02,
       7.50911012e-02, 6.58143219e-03, 3.88196185e-02, 7.75623368e-03,
       6.67266399e-02, 3.75838168e-02, -4.30883095e-02, -1.95019301e-02,
       -2.63295099e-02, 3.26729007e-02, -2.90852826e-04, 5.52122779e-02,
       1.40862670e-04, -1.69755258e-02, -4.30114232e-02, -5.82448654e-02,
       6.44003693e-03, 8.18245783e-02, 1.31117925e-01, 3.81857194e-02,
       1.08171269e-01, 4.19092774e-02, 7.32597113e-02, -2.03467812e-02,
       -6.57180175e-02, -1.50692379e-02, 2.78045721e-02, 6.91045821e-02,
       1.81253552e-02, 7.22567458e-03, -2.83951815e-02, 5.96340224e-02,
       -1.06039755e-02, 1.35288211e-02, 9.90540907e-03, -2.01123748e-02,
       -8.53787363e-03, -3.55696976e-02, -1.16661133e-03, 7.98222329e-03,
       3.09298374e-02, 7.49241840e-03, 3.92393433e-02, 2.11459268e-02,
       2.22913525e-03, 3.31249163e-02, -7.99542831e-05, 4.11282666e-02,
       -3.58948042e-03, 2.30815783e-02, 2.35290918e-02, 7.82503653e-03,
       1.05966674e-02, 3.20341182e-03, -3.79913789e-03, 1.24673843e-02,
       2.04214826e-02, 7.13803712e-03, 1.09148221e-02, -1.89317903e-03,
       3.97482961e-02, 3.78532521e-02, 4.35236022e-02, 3.66639122e-02,
       -1.14525277e-02, 4.84235138e-02, 1.38582401e-02, 8.01490471e-02,
       5.34086339e-02, 5.23243519e-03, 4.49375855e-03, 2.53089126e-02,
       2.92755812e-02, -4.40127142e-02, -1.28222480e-02, -2.16266401e-02,
       4.65825610e-02, 2.13712384e-03, -2.07364745e-02, 1.37103591e-02,
       2.66446397e-02, 3.88846621e-02, -9.71240085e-03, 4.83741164e-02,
       4.38790172e-02, 4.72036563e-02, 2.57645291e-03, -3.88556272e-02,
       2.11619283e-03, 4.90769185e-02, 6.53471947e-02, -1.36401644e-02,
       8.30232166e-03, -5.02706468e-02, 3.90884951e-02, -1.65862665e-02,
       -6.64112791e-02, -1.74476951e-02, 1.10628707e-02, 6.43692389e-02,
       -2.67404653e-02, -1.02843028e-02, -2.75547486e-02, 7.39146322e-02,
       4.18592663e-03, -3.89991440e-02, -3.72710600e-02, -4.82328497e-02,
       -3.34242769e-02, -4.45351973e-02, -1.31013105e-03, 1.34593425e-02,
       5.66314757e-02, -3.07974056e-03, 1.99664850e-02, -1.95493661e-02,
       -4.65081446e-02, -1.12670548e-02, -9.50095430e-03, 2.06975229e-02,
       1.10701360e-02, 2.04965603e-02, 2.00513098e-02, 2.01797094e-02,
       5.10996655e-02, 4.08443622e-02, 2.61012353e-02, -5.94494957e-03,
       4.74820621e-02, 5.44257425e-02, 4.75828759e-02, 6.85570808e-03,
       -2.27874145e-02, 9.18647833e-03, 2.65069946e-04, 2.38934457e-02,
       5.04135229e-02, 3.50884274e-02, 1.93961877e-02, 2.18919497e-02,
       -1.72322933e-02, -9.85028781e-03, -1.62965842e-02, 2.04599015e-02,
       4.90898639e-02, 2.55473722e-02, 3.07285804e-02, -5.00563299e-03,
       3.14464904e-02, 3.48427221e-02, -1.92244966e-02, 1.46872038e-02,
       1.88862607e-02, 2.48767100e-02, -4.22907509e-02, 4.08834293e-02,
       5.58456406e-02, 5.06050289e-02, -2.59459019e-02, -4.83645201e-02,
       -4.86843055e-03, -1.81233566e-02, 6.51631057e-02, 2.88685020e-02,
       5.65970577e-02, 2.75149662e-02, 4.21261601e-02, -4.21486385e-02,
       -3.99294123e-02, -6.69483282e-03, -5.09470981e-03, 6.65476592e-03,
       -4.95296009e-02, -2.87295580e-02, -5.99650182e-02, 7.92145915e-03,
       -1.45049172e-03, -3.29101011e-02, -1.75171327e-02,
       -1.63245816e-02, -3.73753533e-02, -5.31317629e-02, 2.27859877e-02,
       4.78754751e-02, 8.63493159e-02, -1.35600865e-02, -7.71078421e-03,
       -7.66179478e-03, -3.79279628e-02, -2.96268295e-02,
       -4.85601351e-02, -3.86072956e-02, -4.35166620e-02, 1.49130123e-02,
       -1.78348664e-02, -3.26394918e-03, 1.08687561e-02, -8.92199483e-03,
       -1.52398180e-02, 7.71117443e-03, 1.25025609e-03, 2.97312289e-02,
       1.68148000e-02, -1.64962001e-02, -4.85776588e-02, 2.81803054e-03,
       2.82838773e-02, 1.53249487e-01, 1.27402350e-01, 1.24576613e-01,
       3.71328369e-02, 2.13055871e-02, -3.50236408e-02, -5.04672639e-02,
       -2.07714643e-02, 3.43418657e-03, 7.63095319e-02, 8.38663355e-02,
       3.72828469e-02, -3.38674523e-02, -2.45965663e-02, -4.63148765e-02,
       -3.82965505e-02, -1.23963309e-02, -3.38080269e-03, 2.48361640e-02,
       3.94179933e-02, 3.97710241e-02, 5.83030321e-02, 5.09629473e-02,
       -2.78740861e-02, -4.98479232e-02, -3.95115605e-03, 1.77483391e-02,
       9.49117988e-02, 6.50518201e-03, 1.22122146e-01, 2.28380971e-02,
       6.09581964e-03, -4.86187860e-02, -4.27619182e-02, 5.20314882e-03,
       1.58718377e-02, 1.17318369e-01, 4.93609756e-02, 6.21166378e-02,
       -8.03170726e-02, -5.42498864e-02, -6.99921772e-02,
       -2.58380398e-02, -2.16956213e-02, -4.71061468e-02,
       -5.25811948e-02, -4.35310379e-02, -1.73430033e-02, 9.75651958e-04,
       2.37846076e-02, -3.03656496e-02, 2.18101814e-02, 4.96596768e-02,
       -4.24467959e-03, -1.42468261e-02, -7.71329924e-02,
       -3.10802250e-03, -4.52688150e-02, 1.36150951e-02, -1.41915381e-02,
       2.22413391e-02, 1.12922244e-01, 3.89138609e-02, -4.89963554e-02,
       -1.04849085e-01, -7.57746398e-02, -1.17945090e-01,
       -7.57341906e-02, -6.39098063e-02, -1.30919552e+00 ]
